{"learner":{"attributes":{"scikit_learn":"{\"_estimator_type\": \"regressor\"}"},"feature_names":["discounted_price","actual_price","discount_percentage","rating","desc_len","price_competitiveness","review_sentiment","main_category_encoded"],"feature_types":["float","float","float","float","int","float","float","int"],"gradient_booster":{"model":{"cats":{"enc":[],"feature_segments":[],"sorted_idx":[]},"gbtree_model_param":{"num_parallel_tree":"1","num_trees":"500"},"iteration_indptr":[0,1,2,3,4,5,6,7,8,9,10,11,12,13,14,15,16,17,18,19,20,21,22,23,24,25,26,27,28,29,30,31,32,33,34,35,36,37,38,39,40,41,42,43,44,45,46,47,48,49,50,51,52,53,54,55,56,57,58,59,60,61,62,63,64,65,66,67,68,69,70,71,72,73,74,75,76,77,78,79,80,81,82,83,84,85,86,87,88,89,90,91,92,93,94,95,96,97,98,99,100,101,102,103,104,105,106,107,108,109,110,111,112,113,114,115,116,117,118,119,120,121,122,123,124,125,126,127,128,129,130,131,132,133,134,135,136,137,138,139,140,141,142,143,144,145,146,147,148,149,150,151,152,153,154,155,156,157,158,159,160,161,162,163,164,165,166,167,168,169,170,171,172,173,174,175,176,177,178,179,180,181,182,183,184,185,186,187,188,189,190,191,192,193,194,195,196,197,198,199,200,201,202,203,204,205,206,207,208,209,210,211,212,213,214,215,216,217,218,219,220,221,222,223,224,225,226,227,228,229,230,231,232,233,234,235,236,237,238,239,240,241,242,243,244,245,246,247,248,249,250,251,252,253,254,255,256,257,258,259,260,261,262,263,264,265,266,267,268,269,270,271,272,273,274,275,276,277,278,279,280,281,282,283,284,285,286,287,288,289,290,291,292,293,294,295,296,297,298,299,300,301,302,303,304,305,306,307,308,309,310,311,312,313,314,315,316,317,318,319,320,321,322,323,324,325,326,327,328,329,330,331,332,333,334,335,336,337,338,339,340,341,342,343,344,345,346,347,348,349,350,351,352,353,354,355,356,357,358,359,360,361,362,363,364,365,366,367,368,369,370,371,372,373,374,375,376,377,378,379,380,381,382,383,384,385,386,387,388,389,390,391,392,393,394,395,396,397,398,399,400,401,402,403,404,405,406,407,408,409,410,411,412,413,414,415,416,417,418,419,420,421,422,423,424,425,426,427,428,429,430,431,432,433,434,435,436,437,438,439,440,441,442,443,444,445,446,447,448,449,450,451,452,453,454,455,456,457,458,459,460,461,462,463,464,465,466,467,468,469,470,471,472,473,474,475,476,477,478,479,480,481,482,483,484,485,486,487,488,489,490,491,492,493,494,495,496,497,498,499,500],"tree_info":[0,0,0,0,0,0,0,0,0,0,0,0,0,0,0,0,0,0,0,0,0,0,0,0,0,0,0,0,0,0,0,0,0,0,0,0,0,0,0,0,0,0,0,0,0,0,0,0,0,0,0,0,0,0,0,0,0,0,0,0,0,0,0,0,0,0,0,0,0,0,0,0,0,0,0,0,0,0,0,0,0,0,0,0,0,0,0,0,0,0,0,0,0,0,0,0,0,0,0,0,0,0,0,0,0,0,0,0,0,0,0,0,0,0,0,0,0,0,0,0,0,0,0,0,0,0,0,0,0,0,0,0,0,0,0,0,0,0,0,0,0,0,0,0,0,0,0,0,0,0,0,0,0,0,0,0,0,0,0,0,0,0,0,0,0,0,0,0,0,0,0,0,0,0,0,0,0,0,0,0,0,0,0,0,0,0,0,0,0,0,0,0,0,0,0,0,0,0,0,0,0,0,0,0,0,0,0,0,0,0,0,0,0,0,0,0,0,0,0,0,0,0,0,0,0,0,0,0,0,0,0,0,0,0,0,0,0,0,0,0,0,0,0,0,0,0,0,0,0,0,0,0,0,0,0,0,0,0,0,0,0,0,0,0,0,0,0,0,0,0,0,0,0,0,0,0,0,0,0,0,0,0,0,0,0,0,0,0,0,0,0,0,0,0,0,0,0,0,0,0,0,0,0,0,0,0,0,0,0,0,0,0,0,0,0,0,0,0,0,0,0,0,0,0,0,0,0,0,0,0,0,0,0,0,0,0,0,0,0,0,0,0,0,0,0,0,0,0,0,0,0,0,0,0,0,0,0,0,0,0,0,0,0,0,0,0,0,0,0,0,0,0,0,0,0,0,0,0,0,0,0,0,0,0,0,0,0,0,0,0,0,0,0,0,0,0,0,0,0,0,0,0,0,0,0,0,0,0,0,0,0,0,0,0,0,0,0,0,0,0,0,0,0,0,0,0,0,0,0,0,0,0,0,0,0,0,0,0,0,0,0,0,0,0,0,0,0,0,0,0,0,0,0,0,0,0,0,0,0,0,0,0,0,0,0,0,0,0,0,0,0,0,0,0,0,0,0,0,0,0,0,0,0,0,0,0,0,0,0,0,0,0,0,0,0,0,0,0,0,0],"trees":[{"base_weights":[4.4708577E-7,3.678516E-1,-7.3948437E-1,-4.332853E-1,5.8115214E-1,-2.9144413E0,-5.2296895E-1,-3.047847E-1,-1.9123092E0,3.6385188E-1,9.361925E-1,-3.4745529E0,-2.0321496E0,-5.9168094E-1,2.6985136E-1,-8.88821E-1,5.1245455E-2,-1.1119672E-1,-1.108547E0,7.393342E-2,4.6058553E-1,1.1482472E0,1.5277545E-1,-2.18645E-1,-1.3766757E-1,-2.5843935E0,-8.593526E-2,-1.2076749E0,-5.040718E-1,3.523236E-2,7.873122E-1,7.393342E-2,-1.108547E0,-7.473413E-1,7.393342E-2,-5.542735E-2,-8.3312035E-2,7.393342E-2,2.6725948E-1,7.57271E-1,3.0303425E-1,1.294459E0,2.5011027E-1,7.393342E-2,7.882344E-2,-8.593526E-2,-1.3766757E-1,-1.7187052E0,-4.279367E-2,-5.607988E-1,1.1512859E-1,-1.8746103E-1,2.547228E-1,-1.3817151E-2,1.0181801E0,3.6966712E-3,-1.0111439E-2,-5.542735E-2,-2.586534E-2,-5.542735E-2,-2.1922952E-2,3.6966712E-3,-1.6835196E-2,1.3362974E-2,3.6966712E-3,1.3362974E-2,3.6966712E-3,1.7479438E-2,7.320105E-2,1.3362974E-2,3.069419E-2,7.840107E-2,5.265919E-2,3.8614232E-2,3.6966712E-3,3.6966712E-3,4.1260052E-2,-4.279367E-2,-8.593526E-2,-3.269492E-2,-1.4925766E-2,-1.1141757E-2,6.2603354E-2,-2.8767562E-2,-4.5568445E-3,1.6815442E-3,2.2726655E-2,9.9925995E-3,-1.1028886E-2,6.411621E-2,1.1927335E-2],"categories":[],"categories_nodes":[],"categories_segments":[],"categories_sizes":[],"default_left":[0,0,0,0,0,0,0,0,0,0,0,0,0,0,0,0,0,0,0,0,0,0,0,0,0,0,0,0,0,0,0,0,0,0,0,0,0,0,0,0,0,0,0,0,0,0,0,0,0,0,0,0,0,0,0,0,0,0,0,0,0,0,0,0,0,0,0,0,0,0,0,0,0,0,0,0,0,0,0,0,0,0,0,0,0,0,0,0,0,0,0],"id":0,"left_children":[1,3,5,7,9,11,13,15,17,19,21,23,25,27,29,31,33,-1,35,37,39,41,43,-1,-1,45,-1,47,49,51,53,55,57,59,61,-1,-1,63,65,67,69,71,73,75,-1,-1,-1,77,-1,79,81,83,85,87,89,-1,-1,-1,-1,-1,-1,-1,-1,-1,-1,-1,-1,-1,-1,-1,-1,-1,-1,-1,-1,-1,-1,-1,-1,-1,-1,-1,-1,-1,-1,-1,-1,-1,-1,-1,-1],"loss_changes":[3.185358E2,1.3388226E2,1.8166048E2,3.0776316E1,4.7338318E1,1.0235596E1,1.9498726E1,3.1859539E1,1.5694847E0,1.1886185E1,3.8698364E1,2.9999084E0,1.469429E0,1.7038383E1,3.493039E0,3.0171135E1,1.5458439E1,0E0,8.737416E-1,4.294714E0,1.360651E1,2.3838776E1,8.707964E0,0E0,0E0,6.9093094E0,0E0,3.3598015E1,1.0180687E1,1.0742111E0,1.6786647E0,2.9959607E-1,7.0835266E0,4.3016653E0,4.2240334E0,0E0,0E0,1.4884369E0,6.4768476E0,2.8877396E1,1.1453548E1,8.777161E0,8.228503E0,2.1497743E0,0E0,0E0,0E0,5.96389E0,0E0,6.251274E0,2.102356E1,3.585594E-1,8.784404E-1,1.7661795E-1,1.1356544E0,0E0,0E0,0E0,0E0,0E0,0E0,0E0,0E0,0E0,0E0,0E0,0E0,0E0,0E0,0E0,0E0,0E0,0E0,0E0,0E0,0E0,0E0,0E0,0E0,0E0,0E0,0E0,0E0,0E0,0E0,0E0,0E0,0E0,0E0,0E0,0E0],"parents":[2147483647,0,0,1,1,2,2,3,3,4,4,5,5,6,6,7,7,8,8,9,9,10,10,11,11,12,12,13,13,14,14,15,15,16,16,18,18,19,19,20,20,21,21,22,22,25,25,27,27,28,28,29,29,30,30,31,31,32,32,33,33,34,34,37,37,38,38,39,39,40,40,41,41,42,42,43,43,47,47,49,49,50,50,51,51,52,52,53,53,54,54],"right_children":[2,4,6,8,10,12,14,16,18,20,22,24,26,28,30,32,34,-1,36,38,40,42,44,-1,-1,46,-1,48,50,52,54,56,58,60,62,-1,-1,64,66,68,70,72,74,76,-1,-1,-1,78,-1,80,82,84,86,88,90,-1,-1,-1,-1,-1,-1,-1,-1,-1,-1,-1,-1,-1,-1,-1,-1,-1,-1,-1,-1,-1,-1,-1,-1,-1,-1,-1,-1,-1,-1,-1,-1,-1,-1,-1,-1],"split_conditions":[4E0,4E0,3.7E0,1.6408839E0,2.199E3,7.21E2,5E0,9.9E2,2.2050595E-1,3.93E2,2.799E4,3.5E0,1.5E3,3.9E0,5.5E2,3.466899E-1,5.53E2,-1.1119672E-1,2.1175337E0,1E3,7.5E2,1.6667901E0,3.8348484E-1,-2.18645E-1,-1.3766757E-1,4.49E2,-8.593526E-2,3.08E3,4.8666668E-1,4.4E0,6E0,6.95E2,2.9E-1,2.53E2,1.5999E4,-5.542735E-2,-8.3312035E-2,4.99E2,2.2290285E0,4.3E0,1.199E3,2.439E3,3.595E3,6.6E1,7.882344E-2,-8.593526E-2,-1.3766757E-1,6.5E2,-4.279367E-2,4.999E3,5.09E2,9.9E1,1.8786061E-1,2.53E2,1.3763394E0,3.6966712E-3,-1.0111439E-2,-5.542735E-2,-2.586534E-2,-5.542735E-2,-2.1922952E-2,3.6966712E-3,-1.6835196E-2,1.3362974E-2,3.6966712E-3,1.3362974E-2,3.6966712E-3,1.7479438E-2,7.320105E-2,1.3362974E-2,3.069419E-2,7.840107E-2,5.265919E-2,3.8614232E-2,3.6966712E-3,3.6966712E-3,4.1260052E-2,-4.279367E-2,-8.593526E-2,-3.269492E-2,-1.4925766E-2,-1.1141757E-2,6.2603354E-2,-2.8767562E-2,-4.5568445E-3,1.6815442E-3,2.2726655E-2,9.9925995E-3,-1.1028886E-2,6.411621E-2,1.1927335E-2],"split_indices":[7,3,3,5,1,4,7,1,6,4,1,3,1,3,1,5,4,0,5,1,1,5,6,0,0,0,0,1,6,3,7,1,6,4,1,0,0,1,5,3,1,0,1,2,0,0,0,1,0,1,4,1,6,0,5,0,0,0,0,0,0,0,0,0,0,0,0,0,0,0,0,0,0,0,0,0,0,0,0,0,0,0,0,0,0,0,0,0,0,0,0],"split_type":[0,0,0,0,0,0,0,0,0,0,0,0,0,0,0,0,0,0,0,0,0,0,0,0,0,0,0,0,0,0,0,0,0,0,0,0,0,0,0,0,0,0,0,0,0,0,0,0,0,0,0,0,0,0,0,0,0,0,0,0,0,0,0,0,0,0,0,0,0,0,0,0,0,0,0,0,0,0,0,0,0,0,0,0,0,0,0,0,0,0,0],"sum_hessian":[1.169E3,7.81E2,3.88E2,1.64E2,6.17E2,3.4E1,3.54E2,1.52E2,1.2E1,3.84E2,2.33E2,1.9E1,1.5E1,3.26E2,2.8E1,5.7E1,9.5E1,8E0,4E0,8.9E1,2.95E2,1.83E2,5E1,7E0,1.2E1,7E0,8E0,3.9E1,2.87E2,2E1,8E0,1.1E1,4.6E1,2.2E1,7.3E1,3E0,1E0,5E1,3.9E1,1.01E2,1.94E2,1.57E2,2.6E1,4.7E1,3E0,3E0,4E0,2.2E1,1.7E1,2.63E2,2.4E1,1E1,1E1,2E0,6E0,8E0,3E0,3.6E1,1E1,4E0,1.8E1,6.8E1,5E0,1.5E1,3.5E1,2.9E1,1E1,6.5E1,3.6E1,9.7E1,9.7E1,7.1E1,8.6E1,1.4E1,1.2E1,4.6E1,1E0,3E0,1.9E1,1.93E2,7E1,1.4E1,1E1,1E0,9E0,3E0,7E0,1E0,1E0,4E0,2E0],"tree_param":{"num_deleted":"0","num_feature":"8","num_nodes":"91","size_leaf_vector":"1"}},{"base_weights":[-2.055638E-3,3.4728384E-1,-7.043215E-1,-4.0999365E-1,5.4890764E-1,-2.7807703E0,-4.976172E-1,-2.8711176E-1,-1.8246809E0,3.4099665E-1,8.8863766E-1,-3.3154263E0,-1.938652E0,-5.6301576E-1,2.5696722E-1,-8.4994495E-1,5.5924032E-2,-1.0625465E-1,-1.0558963E0,6.9456995E-2,4.3340665E-1,1.0902034E0,1.4399573E-1,-2.0907927E-1,-1.3135196E-1,-2.4833336E0,-8.195969E-2,-7.3965305E-1,-2.8616428E-1,3.0739238E-2,7.562806E-1,6.9456995E-2,-1.0558963E0,-7.205445E-1,6.9456995E-2,-5.2794814E-2,-7.952473E-2,6.9456995E-2,2.5143182E-1,7.202961E-1,2.8111878E-1,1.2305659E0,2.2844519E-1,6.9456995E-2,7.586757E-2,-8.195969E-2,-1.3135196E-1,-1.6391938E0,-5.4565847E-1,-2.1771732E-1,-8.195969E-2,2.2239526E-1,-2.0232192E-1,-1.3471603E-2,9.781343E-1,3.4728497E-3,-9.732246E-3,-2.4660982E-2,-5.2794814E-2,-5.2794814E-2,-2.088449E-2,3.4728497E-3,-1.6277188E-2,1.2571591E-2,3.4728497E-3,1.2571591E-2,3.4728497E-3,1.6618686E-2,6.9639914E-2,1.2571591E-2,2.9175151E-2,3.647528E-2,6.500833E-2,3.647528E-2,3.4728497E-3,3.4728497E-3,3.967021E-2,-5.4621305E-2,-8.195969E-2,-2.1549605E-2,-5.4621305E-2,7.626403E-2,-1.2906543E-2,5.018335E-4,2.0096589E-2,-1.7875839E-2,5.018335E-4,9.742784E-3,-1.0753155E-2,6.717688E-2,1.8409872E-2],"categories":[],"categories_nodes":[],"categories_segments":[],"categories_sizes":[],"default_left":[0,0,0,0,0,0,0,0,0,0,0,0,0,0,0,0,0,0,0,0,0,0,0,0,0,0,0,0,0,0,0,0,0,0,0,0,0,0,0,0,0,0,0,0,0,0,0,0,0,0,0,0,0,0,0,0,0,0,0,0,0,0,0,0,0,0,0,0,0,0,0,0,0,0,0,0,0,0,0,0,0,0,0,0,0,0,0,0,0,0,0],"id":1,"left_children":[1,3,5,7,9,11,13,15,17,19,21,23,25,27,29,31,33,-1,35,37,39,41,43,-1,-1,45,-1,47,49,51,53,55,57,59,61,-1,-1,63,65,67,69,71,73,75,-1,-1,-1,77,79,81,-1,83,85,87,89,-1,-1,-1,-1,-1,-1,-1,-1,-1,-1,-1,-1,-1,-1,-1,-1,-1,-1,-1,-1,-1,-1,-1,-1,-1,-1,-1,-1,-1,-1,-1,-1,-1,-1,-1,-1],"loss_changes":[2.8727975E2,1.19624825E2,1.655793E2,2.8159622E1,4.334857E1,9.331085E0,1.7663483E1,2.9587536E1,1.4903297E0,1.0815636E1,3.4965103E1,2.95401E0,1.5788116E0,1.5779366E1,3.252554E0,2.8324093E1,1.4331951E1,0E0,9.4883204E-1,4.0361705E0,1.2729687E1,2.197525E1,8.097411E0,0E0,0E0,6.682369E0,0E0,4.7947594E1,1.5749204E1,9.830145E-1,1.550128E0,2.7417493E-1,6.7697983E0,4.037327E0,4.012962E0,0E0,0E0,1.3875296E0,6.073383E0,2.6146698E1,1.05715065E1,7.996887E0,7.6413374E0,2.0648193E0,0E0,0E0,0E0,3.4480057E0,1.5453297E1,9.269249E0,0E0,8.409812E-1,6.2970185E-1,1.6789728E-1,1.0654235E0,0E0,0E0,0E0,0E0,0E0,0E0,0E0,0E0,0E0,0E0,0E0,0E0,0E0,0E0,0E0,0E0,0E0,0E0,0E0,0E0,0E0,0E0,0E0,0E0,0E0,0E0,0E0,0E0,0E0,0E0,0E0,0E0,0E0,0E0,0E0,0E0],"parents":[2147483647,0,0,1,1,2,2,3,3,4,4,5,5,6,6,7,7,8,8,9,9,10,10,11,11,12,12,13,13,14,14,15,15,16,16,18,18,19,19,20,20,21,21,22,22,25,25,27,27,28,28,29,29,30,30,31,31,32,32,33,33,34,34,37,37,38,38,39,39,40,40,41,41,42,42,43,43,47,47,48,48,49,49,51,51,52,52,53,53,54,54],"right_children":[2,4,6,8,10,12,14,16,18,20,22,24,26,28,30,32,34,-1,36,38,40,42,44,-1,-1,46,-1,48,50,52,54,56,58,60,62,-1,-1,64,66,68,70,72,74,76,-1,-1,-1,78,80,82,-1,84,86,88,90,-1,-1,-1,-1,-1,-1,-1,-1,-1,-1,-1,-1,-1,-1,-1,-1,-1,-1,-1,-1,-1,-1,-1,-1,-1,-1,-1,-1,-1,-1,-1,-1,-1,-1,-1,-1],"split_conditions":[4E0,4E0,3.7E0,1.6408839E0,2.199E3,7.21E2,5E0,9.9E2,2.2050595E-1,3.93E2,2.799E4,3.5E0,1.5E3,3.08E3,5.5E2,3.466899E-1,5.53E2,-1.0625465E-1,2.1175337E0,1E3,7.5E2,1.6667901E0,3.8348484E-1,-2.0907927E-1,-1.3135196E-1,4.49E2,-8.195969E-2,3.9E0,2.9858623E0,1.59E2,6E0,6.95E2,4.4E2,2.53E2,1.5999E4,-5.2794814E-2,-7.952473E-2,4.99E2,2.2290285E0,4.3E0,1.199E3,1.1812169E-1,3.595E3,6.6E1,7.586757E-2,-8.195969E-2,-1.3135196E-1,6.5E2,2.4E3,5.2497226E-1,-8.195969E-2,1.2E2,4.62E2,2.53E2,1.2562578E0,3.4728497E-3,-9.732246E-3,-2.4660982E-2,-5.2794814E-2,-5.2794814E-2,-2.088449E-2,3.4728497E-3,-1.6277188E-2,1.2571591E-2,3.4728497E-3,1.2571591E-2,3.4728497E-3,1.6618686E-2,6.9639914E-2,1.2571591E-2,2.9175151E-2,3.647528E-2,6.500833E-2,3.647528E-2,3.4728497E-3,3.4728497E-3,3.967021E-2,-5.4621305E-2,-8.195969E-2,-2.1549605E-2,-5.4621305E-2,7.626403E-2,-1.2906543E-2,5.018335E-4,2.0096589E-2,-1.7875839E-2,5.018335E-4,9.742784E-3,-1.0753155E-2,6.717688E-2,1.8409872E-2],"split_indices":[7,3,3,5,1,4,7,1,6,4,1,3,1,1,1,5,4,0,5,1,1,5,6,0,0,0,0,3,5,0,7,1,1,4,1,0,0,1,5,3,1,6,1,2,0,0,0,1,1,5,0,1,4,0,5,0,0,0,0,0,0,0,0,0,0,0,0,0,0,0,0,0,0,0,0,0,0,0,0,0,0,0,0,0,0,0,0,0,0,0,0],"split_type":[0,0,0,0,0,0,0,0,0,0,0,0,0,0,0,0,0,0,0,0,0,0,0,0,0,0,0,0,0,0,0,0,0,0,0,0,0,0,0,0,0,0,0,0,0,0,0,0,0,0,0,0,0,0,0,0,0,0,0,0,0,0,0,0,0,0,0,0,0,0,0,0,0,0,0,0,0,0,0,0,0,0,0,0,0,0,0,0,0,0,0],"sum_hessian":[1.169E3,7.81E2,3.88E2,1.64E2,6.17E2,3.4E1,3.54E2,1.52E2,1.2E1,3.84E2,2.33E2,1.9E1,1.5E1,3.26E2,2.8E1,5.7E1,9.5E1,8E0,4E0,8.9E1,2.95E2,1.83E2,5E1,7E0,1.2E1,7E0,8E0,1.98E2,1.28E2,2E1,8E0,1.1E1,4.6E1,2.2E1,7.3E1,3E0,1E0,5E1,3.9E1,1.01E2,1.94E2,1.57E2,2.6E1,4.7E1,3E0,3E0,4E0,2.2E1,1.76E2,1.25E2,3E0,1.1E1,9E0,2E0,6E0,8E0,3E0,8E0,3.8E1,4E0,1.8E1,6.8E1,5E0,1.5E1,3.5E1,2.9E1,1E1,6.5E1,3.6E1,9.7E1,9.7E1,1E1,1.47E2,1.4E1,1.2E1,4.6E1,1E0,3E0,1.9E1,1.58E2,1.8E1,2E0,1.23E2,3E0,8E0,7E0,2E0,1E0,1E0,3E0,3E0],"tree_param":{"num_deleted":"0","num_feature":"8","num_nodes":"91","size_leaf_vector":"1"}},{"base_weights":[-5.0971354E-3,3.2743567E-1,-6.73569E-1,-3.8741708E-1,5.1776457E-1,-2.653149E0,-4.765018E-1,-2.6987523E-1,-1.7409928E0,3.1931853E-1,8.42055E-1,-3.1634371E0,-1.8494666E0,-5.391935E-1,2.4683268E-1,-8.1192964E-1,6.0427185E-2,-1.01532236E-1,-1.005434E0,6.5173745E-2,4.076072E-1,1.0332834E0,1.3562232E-1,-1.9993205E-1,-1.253226E-1,-2.3869226E0,-7.824127E-2,-7.089542E-1,-2.7313486E-1,2.8922444E-2,7.27864E-1,6.5173745E-2,-1.005434E0,-6.950185E-1,6.5173745E-2,-5.02717E-2,-7.590197E-2,6.5173745E-2,2.3639047E-1,6.8512684E-1,2.6035276E-1,1.167775E0,2.0798846E-1,6.5173745E-2,7.302254E-2,-7.824127E-2,-1.253226E-1,-1.5648253E0,-5.208677E-1,-2.0632908E-1,-7.824127E-2,-1.7678308E-1,2.3199867E-1,-1.3134639E-2,9.4145435E-1,3.2586872E-3,-9.367287E-3,-5.02717E-2,-2.3506507E-2,-5.02717E-2,-1.9895224E-2,3.2586872E-3,-1.5746119E-2,1.1819524E-2,3.2586872E-3,1.1819524E-2,3.2586872E-3,1.580034E-2,6.6252016E-2,1.1819524E-2,2.7731294E-2,7.140948E-2,4.6941847E-2,3.439409E-2,3.2586872E-3,3.2586872E-3,3.814061E-2,-5.2142322E-2,-7.824127E-2,-2.0478921E-2,-5.2142322E-2,7.3721886E-2,-1.2266442E-2,-2.8060913E-2,-4.110887E-3,1.3803896E-3,2.0975584E-2,9.499216E-3,-1.04843145E-2,6.465775E-2,1.7719507E-2],"categories":[],"categories_nodes":[],"categories_segments":[],"categories_sizes":[],"default_left":[0,0,0,0,0,0,0,0,0,0,0,0,0,0,0,0,0,0,0,0,0,0,0,0,0,0,0,0,0,0,0,0,0,0,0,0,0,0,0,0,0,0,0,0,0,0,0,0,0,0,0,0,0,0,0,0,0,0,0,0,0,0,0,0,0,0,0,0,0,0,0,0,0,0,0,0,0,0,0,0,0,0,0,0,0,0,0,0,0,0,0],"id":2,"left_children":[1,3,5,7,9,11,13,15,17,19,21,23,25,27,29,31,33,-1,35,37,39,41,43,-1,-1,45,-1,47,49,51,53,55,57,59,61,-1,-1,63,65,67,69,71,73,75,-1,-1,-1,77,79,81,-1,83,85,87,89,-1,-1,-1,-1,-1,-1,-1,-1,-1,-1,-1,-1,-1,-1,-1,-1,-1,-1,-1,-1,-1,-1,-1,-1,-1,-1,-1,-1,-1,-1,-1,-1,-1,-1,-1,-1],"loss_changes":[2.6029846E2,1.06597305E2,1.5048863E2,2.5781944E1,3.9501984E1,8.503189E0,1.62313E1,2.744247E1,1.4150047E0,9.837917E0,3.1470917E1,2.8981323E0,1.6617432E0,1.4575752E1,3.0187764E0,2.657442E1,1.3285112E1,0E0,1.0124359E0,3.7934628E0,1.1917969E1,2.0180267E1,7.5298305E0,0E0,0E0,6.4377785E0,0E0,4.468377E1,1.4853953E1,9.1826534E-1,1.4367967E0,2.5081682E-1,6.3819237E0,3.7856245E0,3.8145196E0,0E0,0E0,1.2941585E0,5.693429E0,2.367418E1,9.756982E0,8.078888E0,7.230486E0,1.9834936E0,0E0,0E0,0E0,3.3204346E0,1.4450249E1,8.62096E0,0E0,3.5375455E-1,7.684152E-1,1.5960719E-1,9.870148E-1,0E0,0E0,0E0,0E0,0E0,0E0,0E0,0E0,0E0,0E0,0E0,0E0,0E0,0E0,0E0,0E0,0E0,0E0,0E0,0E0,0E0,0E0,0E0,0E0,0E0,0E0,0E0,0E0,0E0,0E0,0E0,0E0,0E0,0E0,0E0,0E0],"parents":[2147483647,0,0,1,1,2,2,3,3,4,4,5,5,6,6,7,7,8,8,9,9,10,10,11,11,12,12,13,13,14,14,15,15,16,16,18,18,19,19,20,20,21,21,22,22,25,25,27,27,28,28,29,29,30,30,31,31,32,32,33,33,34,34,37,37,38,38,39,39,40,40,41,41,42,42,43,43,47,47,48,48,49,49,51,51,52,52,53,53,54,54],"right_children":[2,4,6,8,10,12,14,16,18,20,22,24,26,28,30,32,34,-1,36,38,40,42,44,-1,-1,46,-1,48,50,52,54,56,58,60,62,-1,-1,64,66,68,70,72,74,76,-1,-1,-1,78,80,82,-1,84,86,88,90,-1,-1,-1,-1,-1,-1,-1,-1,-1,-1,-1,-1,-1,-1,-1,-1,-1,-1,-1,-1,-1,-1,-1,-1,-1,-1,-1,-1,-1,-1,-1,-1,-1,-1,-1,-1],"split_conditions":[4E0,4E0,3.7E0,1.6408839E0,2.199E3,7.21E2,5E0,9.9E2,2.2050595E-1,3.93E2,2.799E4,3.5E0,1.5E3,3.08E3,5.5E2,3.466899E-1,5.53E2,-1.01532236E-1,2.1175337E0,1E3,7.5E2,1.6667901E0,3.8348484E-1,-1.9993205E-1,-1.253226E-1,4.49E2,-7.824127E-2,3.9E0,2.9858623E0,4.4E0,6E0,6.95E2,2.9E-1,2.53E2,1.5999E4,-5.02717E-2,-7.590197E-2,4.99E2,2.2290285E0,4.3E0,1.199E3,2.439E3,2E0,6.6E1,7.302254E-2,-7.824127E-2,-1.253226E-1,6.5E2,2.4E3,5.2497226E-1,-7.824127E-2,9.9E1,1.8786061E-1,2.53E2,1.2562578E0,3.2586872E-3,-9.367287E-3,-5.02717E-2,-2.3506507E-2,-5.02717E-2,-1.9895224E-2,3.2586872E-3,-1.5746119E-2,1.1819524E-2,3.2586872E-3,1.1819524E-2,3.2586872E-3,1.580034E-2,6.6252016E-2,1.1819524E-2,2.7731294E-2,7.140948E-2,4.6941847E-2,3.439409E-2,3.2586872E-3,3.2586872E-3,3.814061E-2,-5.2142322E-2,-7.824127E-2,-2.0478921E-2,-5.2142322E-2,7.3721886E-2,-1.2266442E-2,-2.8060913E-2,-4.110887E-3,1.3803896E-3,2.0975584E-2,9.499216E-3,-1.04843145E-2,6.465775E-2,1.7719507E-2],"split_indices":[7,3,3,5,1,4,7,1,6,4,1,3,1,1,1,5,4,0,5,1,1,5,6,0,0,0,0,3,5,3,7,1,6,4,1,0,0,1,5,3,1,0,7,2,0,0,0,1,1,5,0,1,6,0,5,0,0,0,0,0,0,0,0,0,0,0,0,0,0,0,0,0,0,0,0,0,0,0,0,0,0,0,0,0,0,0,0,0,0,0,0],"split_type":[0,0,0,0,0,0,0,0,0,0,0,0,0,0,0,0,0,0,0,0,0,0,0,0,0,0,0,0,0,0,0,0,0,0,0,0,0,0,0,0,0,0,0,0,0,0,0,0,0,0,0,0,0,0,0,0,0,0,0,0,0,0,0,0,0,0,0,0,0,0,0,0,0,0,0,0,0,0,0,0,0,0,0,0,0,0,0,0,0,0,0],"sum_hessian":[1.169E3,7.81E2,3.88E2,1.64E2,6.17E2,3.4E1,3.54E2,1.52E2,1.2E1,3.84E2,2.33E2,1.9E1,1.5E1,3.26E2,2.8E1,5.7E1,9.5E1,8E0,4E0,8.9E1,2.95E2,1.83E2,5E1,7E0,1.2E1,7E0,8E0,1.98E2,1.28E2,2E1,8E0,1.1E1,4.6E1,2.2E1,7.3E1,3E0,1E0,5E1,3.9E1,1.01E2,1.94E2,1.57E2,2.6E1,4.7E1,3E0,3E0,4E0,2.2E1,1.76E2,1.25E2,3E0,1E1,1E1,2E0,6E0,8E0,3E0,3.6E1,1E1,4E0,1.8E1,6.8E1,5E0,1.5E1,3.5E1,2.9E1,1E1,6.5E1,3.6E1,9.7E1,9.7E1,7.1E1,8.6E1,8E0,1.8E1,4.6E1,1E0,3E0,1.9E1,1.58E2,1.8E1,2E0,1.23E2,1E0,9E0,3E0,7E0,1E0,1E0,3E0,3E0],"tree_param":{"num_deleted":"0","num_feature":"8","num_nodes":"91","size_leaf_vector":"1"}},{"base_weights":[-7.5880713E-3,3.098239E-1,-6.432064E-1,-3.6619157E-1,4.9010384E-1,-2.531282E0,-4.557743E-1,-6.9932145E-1,6.1956137E-2,3.0000302E-1,7.9996973E-1,-3.0182674E0,-1.7643449E0,-5.1549315E-1,2.3538268E-1,-1.9681728E0,-5.7315713E-1,6.1956137E-2,-3.1868267E-1,3.606731E-1,6.1956137E-2,9.8197436E-1,1.2763979E-1,-1.9118503E-1,-1.1956531E-1,-2.2949207E0,-7.467641E-2,-6.772168E-1,-2.6076263E-1,3.956643E-2,7.444545E-1,-6.353325E-2,-1.2322702E-1,-8.6044246E-1,-3.1868267E-1,-1.2836327E-1,6.1956137E-2,-1.2836327E-1,-1.5934134E-2,1.9757509E-1,7.7305907E-1,3.0978068E-3,2.1387072E-2,1.1101354E0,1.956251E-1,6.1956137E-2,7.028418E-2,-7.467641E-2,-1.1956531E-1,-1.4935281E0,-4.954948E-1,-1.9552515E-1,-7.467641E-2,-9.8030314E-2,2.9261452E-1,1.9600524E-2,9.9900913E-1,-2.9478127E-2,-6.353325E-2,-2.9478127E-2,-1.5934134E-2,-6.4181634E-3,-1.6601783E-3,-1.6601783E-3,3.0978068E-3,-1.5934134E-2,-6.4181634E-3,2.0095965E-2,3.0978068E-3,4.758961E-2,5.6176926E-3,3.2644015E-2,5.8894824E-2,3.2644015E-2,3.0978068E-3,3.0978068E-3,3.669099E-2,-4.9725574E-2,-7.467641E-2,-1.939563E-2,-4.9725574E-2,7.126449E-2,-1.165808E-2,4.430363E-3,-1.619943E-2,1.9600524E-2,4.864605E-3,2.4119174E-2,6.774201E-2],"categories":[],"categories_nodes":[],"categories_segments":[],"categories_sizes":[],"default_left":[0,0,0,0,0,0,0,0,0,0,0,0,0,0,0,0,0,0,0,0,0,0,0,0,0,0,0,0,0,0,0,0,0,0,0,0,0,0,0,0,0,0,0,0,0,0,0,0,0,0,0,0,0,0,0,0,0,0,0,0,0,0,0,0,0,0,0,0,0,0,0,0,0,0,0,0,0,0,0,0,0,0,0,0,0,0,0,0,0],"id":3,"left_children":[1,3,5,7,9,11,13,15,17,19,21,23,25,27,29,31,33,35,37,39,41,43,45,-1,-1,47,-1,49,51,53,55,-1,-1,57,59,61,63,65,-1,67,69,-1,-1,71,73,75,-1,-1,-1,77,79,81,-1,83,85,-1,87,-1,-1,-1,-1,-1,-1,-1,-1,-1,-1,-1,-1,-1,-1,-1,-1,-1,-1,-1,-1,-1,-1,-1,-1,-1,-1,-1,-1,-1,-1,-1,-1],"loss_changes":[2.3625017E2,9.536153E1,1.3686183E2,2.3647493E1,3.6104874E1,7.7467804E0,1.4815254E1,1.3759716E1,1.1094664E1,9.199738E0,2.850859E1,2.834076E0,1.7337456E0,1.3335686E1,2.8613958E0,3.045309E0,1.1352535E1,3.5865338E0,5.3745556E-1,2.3186253E1,6.651559E-1,1.8326248E1,6.9985433E0,0E0,0E0,6.1959724E0,0E0,4.1797096E1,1.40129595E1,7.946941E-1,1.0632772E0,0E0,0E0,2.4053139E1,2.0903254E0,5.365083E-1,3.0037117E-1,3.0351323E-1,0E0,1.3890031E1,1.1465878E1,0E0,0E0,7.333725E0,6.8008294E0,1.9024955E0,0E0,0E0,0E0,3.2020264E0,1.3559761E1,8.018538E0,0E0,6.6129225E-1,2.4377203E-1,0E0,4.494362E-1,0E0,0E0,0E0,0E0,0E0,0E0,0E0,0E0,0E0,0E0,0E0,0E0,0E0,0E0,0E0,0E0,0E0,0E0,0E0,0E0,0E0,0E0,0E0,0E0,0E0,0E0,0E0,0E0,0E0,0E0,0E0,0E0],"parents":[2147483647,0,0,1,1,2,2,3,3,4,4,5,5,6,6,7,7,8,8,9,9,10,10,11,11,12,12,13,13,14,14,15,15,16,16,17,17,18,18,19,19,20,20,21,21,22,22,25,25,27,27,28,28,29,29,30,30,33,33,34,34,35,35,36,36,37,37,39,39,40,40,43,43,44,44,45,45,49,49,50,50,51,51,53,53,54,54,56,56],"right_children":[2,4,6,8,10,12,14,16,18,20,22,24,26,28,30,32,34,36,38,40,42,44,46,-1,-1,48,-1,50,52,54,56,-1,-1,58,60,62,64,66,-1,68,70,-1,-1,72,74,76,-1,-1,-1,78,80,82,-1,84,86,-1,88,-1,-1,-1,-1,-1,-1,-1,-1,-1,-1,-1,-1,-1,-1,-1,-1,-1,-1,-1,-1,-1,-1,-1,-1,-1,-1,-1,-1,-1,-1,-1,-1],"split_conditions":[3E0,4E0,3.7E0,7.61E2,2.199E3,7.21E2,5E0,5E-2,2.199E3,1.92E3,2.799E4,3.5E0,1.5E3,3.08E3,2.5E1,5.35E2,3.9E0,3.7E0,2E0,1.199E3,2E3,1.6667901E0,3.8348484E-1,-1.9118503E-1,-1.1956531E-1,4.49E2,-7.467641E-2,3.9E0,2.9858623E0,3.97E2,6E0,-6.353325E-2,-1.2322702E-1,2E0,2E0,2.876389E-1,1.34E-1,1E0,-1.5934134E-2,8.25E2,1.5355884E0,3.0978068E-3,2.1387072E-2,1.1812169E-1,3.595E3,6.6E1,7.028418E-2,-7.467641E-2,-1.1956531E-1,6.5E2,2.4E3,5.2497226E-1,-7.467641E-2,1.59E2,1.0063932E0,1.9600524E-2,5.56E2,-2.9478127E-2,-6.353325E-2,-2.9478127E-2,-1.5934134E-2,-6.4181634E-3,-1.6601783E-3,-1.6601783E-3,3.0978068E-3,-1.5934134E-2,-6.4181634E-3,2.0095965E-2,3.0978068E-3,4.758961E-2,5.6176926E-3,3.2644015E-2,5.8894824E-2,3.2644015E-2,3.0978068E-3,3.0978068E-3,3.669099E-2,-4.9725574E-2,-7.467641E-2,-1.939563E-2,-4.9725574E-2,7.126449E-2,-1.165808E-2,4.430363E-3,-1.619943E-2,1.9600524E-2,4.864605E-3,2.4119174E-2,6.774201E-2],"split_indices":[7,3,3,4,1,4,7,6,0,1,1,3,1,1,2,1,3,3,7,1,1,5,6,0,0,0,0,3,5,4,7,0,0,7,7,6,6,7,0,1,5,0,0,6,1,2,0,0,0,1,1,5,0,0,5,0,4,0,0,0,0,0,0,0,0,0,0,0,0,0,0,0,0,0,0,0,0,0,0,0,0,0,0,0,0,0,0,0,0],"split_type":[0,0,0,0,0,0,0,0,0,0,0,0,0,0,0,0,0,0,0,0,0,0,0,0,0,0,0,0,0,0,0,0,0,0,0,0,0,0,0,0,0,0,0,0,0,0,0,0,0,0,0,0,0,0,0,0,0,0,0,0,0,0,0,0,0,0,0,0,0,0,0,0,0,0,0,0,0,0,0,0,0,0,0,0,0,0,0,0,0],"sum_hessian":[1.169E3,7.8E2,3.89E2,1.64E2,6.16E2,3.4E1,3.55E2,9.2E1,7.2E1,3.83E2,2.33E2,1.9E1,1.5E1,3.27E2,2.8E1,7E0,8.5E1,5.9E1,1.3E1,3.46E2,3.7E1,1.83E2,5E1,7E0,1.2E1,7E0,8E0,1.99E2,1.28E2,2.1E1,7E0,2E0,5E0,5.7E1,2.8E1,1.2E1,4.7E1,4E0,9E0,2.49E2,9.7E1,3.3E1,4E0,1.57E2,2.6E1,4.7E1,3E0,3E0,4E0,2.2E1,1.77E2,1.25E2,3E0,1.4E1,7E0,2E0,5E0,2.3E1,3.4E1,9E0,1.9E1,1E1,2E0,3E0,4.4E1,1E0,3E0,1.59E2,9E1,7.6E1,2.1E1,1E1,1.47E2,1.4E1,1.2E1,4.6E1,1E0,3E0,1.9E1,1.59E2,1.8E1,2E0,1.23E2,8E0,6E0,4E0,3E0,3E0,2E0],"tree_param":{"num_deleted":"0","num_feature":"8","num_nodes":"89","size_leaf_vector":"1"}},{"base_weights":[-9.420314E-3,2.9259905E-1,-6.1654043E-1,-5.368963E-1,4.2204353E-1,-2.4149165E0,-4.3749902E-1,-5.7426378E-2,-8.29091E-1,2.2786678E-1,7.345455E-1,-2.8796132E0,-1.6831135E0,-4.9498457E-1,2.2578634E-1,-7.746689E-1,-5.7426378E-2,-1.4002976E0,-5.7426378E-2,-5.7426378E-2,3.5986105E-1,8.759235E-1,1.685116E-1,-1.8282068E-1,-1.14068165E-1,-1.14068165E-1,-7.131039E-2,-6.061034E-1,-1.4432874E-1,2.2443363E-2,6.751659E-1,-2.0802382E-2,-8.047885E-2,-2.0802382E-2,-2.871319E-3,-1.6184065E0,-3.64431E-2,-5.7426378E-2,-3.64431E-2,-5.7426378E-2,1.5121734E-1,1.5121734E-1,4.583356E-1,9.8811346E-1,2.0709963E-1,7.038465E-2,6.764853E-2,-3.1924438E-1,-8.3619183E-1,5.331202E-1,-4.44184E-1,-1.6881305E-1,2.1165948E-1,-2.5873503E-2,8.791591E-1,-5.8681715E-2,-8.636479E-2,-2.871319E-3,-1.965721E-2,-2.871319E-3,7.5608674E-3,7.5608674E-3,-2.871319E-3,7.5608674E-3,1.5238824E-2,3.5002243E-2,1.5238824E-2,2.9880328E-2,5.405393E-2,2.9880328E-2,-2.871319E-3,1.4263183E-2,-2.871319E-3,-2.8743645E-2,1.1819227E-2,-5.3398635E-2,-2.057668E-2,6.2507475E-3,6.9235854E-2,-1.753578E-2,-7.131039E-2,-2.747016E-2,-3.7906864E-3,1.0711607E-3,1.9523157E-2,8.771705E-3,-1.07122185E-2,5.5443164E-2,1.0163291E-2],"categories":[],"categories_nodes":[],"categories_segments":[],"categories_sizes":[],"default_left":[0,0,0,0,0,0,0,0,0,0,0,0,0,0,0,0,0,0,0,0,0,0,0,0,0,0,0,0,0,0,0,0,0,0,0,0,0,0,0,0,0,0,0,0,0,0,0,0,0,0,0,0,0,0,0,0,0,0,0,0,0,0,0,0,0,0,0,0,0,0,0,0,0,0,0,0,0,0,0,0,0,0,0,0,0,0,0,0,0],"id":4,"left_children":[1,3,5,7,9,11,13,15,17,19,21,23,25,27,29,31,33,35,37,39,41,43,45,-1,-1,-1,-1,47,49,51,53,-1,-1,-1,-1,55,-1,57,-1,59,61,63,65,67,69,71,-1,73,75,77,79,81,83,85,87,-1,-1,-1,-1,-1,-1,-1,-1,-1,-1,-1,-1,-1,-1,-1,-1,-1,-1,-1,-1,-1,-1,-1,-1,-1,-1,-1,-1,-1,-1,-1,-1,-1,-1],"loss_changes":[2.1471397E2,8.419276E1,1.2419519E2,1.9692715E1,4.091337E1,7.055603E0,1.3647667E1,1.5400126E0,3.888416E1,2.2659365E1,2.0578842E1,2.7634277E0,1.8002701E0,1.26538925E1,2.6348143E0,2.290101E0,5.6928015E-1,1.0382355E1,6.3190613E0,2.7573211E0,9.5546875E0,1.53276825E1,6.0648212E0,0E0,0E0,0E0,0E0,1.6101799E1,1.6487736E1,7.9569566E-1,1.3098125E0,0E0,0E0,0E0,0E0,2.3582382E0,0E0,3.530033E0,0E0,6.497953E-1,1.7528791E0,3.1141086E0,1.0057259E1,1.0751602E1,8.0437565E0,3.055323E0,0E0,1.604377E1,1.3045067E1,8.515418E0,6.422082E0,3.4768853E-1,6.9097644E-1,1.5134723E-1,8.613949E-1,0E0,0E0,0E0,0E0,0E0,0E0,0E0,0E0,0E0,0E0,0E0,0E0,0E0,0E0,0E0,0E0,0E0,0E0,0E0,0E0,0E0,0E0,0E0,0E0,0E0,0E0,0E0,0E0,0E0,0E0,0E0,0E0,0E0,0E0],"parents":[2147483647,0,0,1,1,2,2,3,3,4,4,5,5,6,6,7,7,8,8,9,9,10,10,11,11,12,12,13,13,14,14,15,15,16,16,17,17,18,18,19,19,20,20,21,21,22,22,27,27,28,28,29,29,30,30,35,35,37,37,39,39,40,40,41,41,42,42,43,43,44,44,45,45,47,47,48,48,49,49,50,50,51,51,52,52,53,53,54,54],"right_children":[2,4,6,8,10,12,14,16,18,20,22,24,26,28,30,32,34,36,38,40,42,44,46,-1,-1,-1,-1,48,50,52,54,-1,-1,-1,-1,56,-1,58,-1,60,62,64,66,68,70,72,-1,74,76,78,80,82,84,86,88,-1,-1,-1,-1,-1,-1,-1,-1,-1,-1,-1,-1,-1,-1,-1,-1,-1,-1,-1,-1,-1,-1,-1,-1,-1,-1,-1,-1,-1,-1,-1,-1,-1,-1],"split_conditions":[4E0,3.9E0,3.7E0,2E0,2E3,7.21E2,5E0,6.7E1,8.95E2,1.8786061E-1,2.799E4,3.5E0,2.9E0,4.999E3,5.5E2,1.15E2,1E0,7.6E1,2.088E3,1.5E3,3.93E2,1.6667901E0,3.8348484E-1,-1.8282068E-1,-1.14068165E-1,-1.14068165E-1,-7.131039E-2,1.499E3,6.7E3,4.4E0,6E0,-2.0802382E-2,-8.047885E-2,-2.0802382E-2,-2.871319E-3,1.97E2,-3.64431E-2,1.0063932E0,-3.64431E-2,1.931E3,1.999E3,1E3,8.25E2,1.1812169E-1,3.595E3,4.999E4,6.764853E-2,1E3,3.08E3,8.72E2,2.9858623E0,9.9E1,1.8786061E-1,2.53E2,1.3763394E0,-5.8681715E-2,-8.636479E-2,-2.871319E-3,-1.965721E-2,-2.871319E-3,7.5608674E-3,7.5608674E-3,-2.871319E-3,7.5608674E-3,1.5238824E-2,3.5002243E-2,1.5238824E-2,2.9880328E-2,5.405393E-2,2.9880328E-2,-2.871319E-3,1.4263183E-2,-2.871319E-3,-2.8743645E-2,1.1819227E-2,-5.3398635E-2,-2.057668E-2,6.2507475E-3,6.9235854E-2,-1.753578E-2,-7.131039E-2,-2.747016E-2,-3.7906864E-3,1.0711607E-3,1.9523157E-2,8.771705E-3,-1.07122185E-2,5.5443164E-2,1.0163291E-2],"split_indices":[7,3,3,7,1,4,7,4,4,6,1,3,3,1,1,0,7,2,0,1,4,5,6,0,0,0,0,1,1,3,7,0,0,0,0,0,0,5,0,4,1,1,1,6,1,1,0,1,1,4,5,1,6,0,5,0,0,0,0,0,0,0,0,0,0,0,0,0,0,0,0,0,0,0,0,0,0,0,0,0,0,0,0,0,0,0,0,0,0],"split_type":[0,0,0,0,0,0,0,0,0,0,0,0,0,0,0,0,0,0,0,0,0,0,0,0,0,0,0,0,0,0,0,0,0,0,0,0,0,0,0,0,0,0,0,0,0,0,0,0,0,0,0,0,0,0,0,0,0,0,0,0,0,0,0,0,0,0,0,0,0,0,0,0,0,0,0,0,0,0,0,0,0,0,0,0,0,0,0,0,0],"sum_hessian":[1.169E3,7.81E2,3.88E2,1.05E2,6.76E2,3.4E1,3.54E2,3.2E1,7.3E1,4.18E2,2.58E2,1.9E1,1.5E1,3.26E2,2.8E1,2E0,3E1,4.5E1,2.8E1,9.3E1,3.25E2,2.06E2,5.2E1,7E0,1.2E1,2E0,1.3E1,2.47E2,7.9E1,2E1,8E0,1E0,1E0,1E0,2.9E1,3.9E1,6E0,2.5E1,3E0,7.7E1,1.6E1,7.4E1,2.51E2,1.76E2,3E1,4.9E1,3E0,1.11E2,1.36E2,2.4E1,5.5E1,1E1,1E1,2E0,6E0,2E0,3.7E1,1.7E1,8E0,7.6E1,1E0,1.2E1,4E0,4.1E1,3.3E1,1.02E2,1.49E2,1.4E1,1.62E2,1.7E1,1.3E1,3.2E1,1.7E1,7.6E1,3.5E1,8.7E1,4.9E1,1.7E1,7E0,5.3E1,2E0,1E0,9E0,3E0,7E0,1E0,1E0,4E0,2E0],"tree_param":{"num_deleted":"0","num_feature":"8","num_nodes":"89","size_leaf_vector":"1"}},{"base_weights":[-1.056141E-2,2.7689254E-1,-5.8617926E-1,-3.2357106E-1,4.3702152E-1,-2.3062384E0,-4.1542575E-1,-2.1492665E-1,-1.577342E0,1.6564825E-1,6.2019086E-1,-1.8466692E-1,-2.008118E0,-4.6988088E-1,2.1480541E-1,-7.1746945E-1,5.6725234E-2,-9.249039E-2,-8.961343E-1,3.5986125E-1,5.6725234E-2,7.006803E-1,5.6725234E-2,-1.24082126E-1,-6.804161E-2,-9.866716E-1,-3.9672685E-1,3.2918192E-2,6.8814456E-1,5.6725234E-2,-8.961343E-1,-8.961343E-1,5.6725234E-2,-4.4806715E-2,-6.8648554E-2,5.6725234E-2,7.2190523E-1,5.6725234E-2,8.243984E-1,7.9250056E-1,3.7870276E-1,1.8935138E-2,5.6725234E-2,-1.3608321E0,-3.4584966E-2,-4.5006618E-1,1.8453903E-1,-2.6783396E-2,8.5501716E-2,1.802657E-2,9.3013936E-1,2.8362616E-3,-9.497928E-3,-2.0985229E-2,-4.4806715E-2,-2.0985229E-2,-4.4806715E-2,2.8362616E-3,-2.0985229E-2,1.9465763E-2,2.8362616E-3,6.384178E-2,1.9465763E-2,2.9732777E-2,2.8362616E-3,2.8362616E-3,6.436244E-2,1.8935138E-2,4.2014167E-2,1.8935138E-2,6.51117E-2,2.8362616E-3,1.8228129E-2,-3.4584966E-2,-6.804161E-2,-6.638178E-3,-2.4253687E-2,-6.638178E-3,6.32629E-2,-8.373584E-3,1.2703004E-2,2.2033572E-2,6.363585E-2],"categories":[],"categories_nodes":[],"categories_segments":[],"categories_sizes":[],"default_left":[0,0,0,0,0,0,0,0,0,0,0,0,0,0,0,0,0,0,0,0,0,0,0,0,0,0,0,0,0,0,0,0,0,0,0,0,0,0,0,0,0,0,0,0,0,0,0,0,0,0,0,0,0,0,0,0,0,0,0,0,0,0,0,0,0,0,0,0,0,0,0,0,0,0,0,0,0,0,0,0,0,0,0],"id":5,"left_children":[1,3,5,7,9,11,13,15,17,19,21,-1,23,25,27,29,31,-1,33,35,37,39,41,-1,-1,43,45,47,49,51,53,55,57,-1,-1,59,61,63,65,67,69,-1,71,73,-1,75,77,-1,79,-1,81,-1,-1,-1,-1,-1,-1,-1,-1,-1,-1,-1,-1,-1,-1,-1,-1,-1,-1,-1,-1,-1,-1,-1,-1,-1,-1,-1,-1,-1,-1,-1,-1],"loss_changes":[1.9375476E2,7.5235855E1,1.1358731E2,2.2136501E1,3.0566605E1,7.056671E0,1.2318611E1,2.3470076E1,1.3498039E0,1.1733358E1,2.7467194E1,0E0,7.771675E0,1.2008705E1,2.4740834E0,2.3037159E1,1.0859647E1,0E0,1.1063371E0,2.7770737E1,1.1783225E1,1.5319397E1,8.5456574E-1,0E0,0E0,2.4294037E1,9.043316E0,7.0356226E-1,9.580941E-1,2.4019384E-1,5.571594E0,1.9059181E-1,4.833356E0,0E0,0E0,5.1782656E0,3.0976974E1,5.7552075E-1,9.408967E0,8.398743E0,3.2682233E0,0E0,6.6012895E-1,4.5821915E0,0E0,4.332535E0,1.896446E1,0E0,9.380044E-1,0E0,4.4523382E-1,0E0,0E0,0E0,0E0,0E0,0E0,0E0,0E0,0E0,0E0,0E0,0E0,0E0,0E0,0E0,0E0,0E0,0E0,0E0,0E0,0E0,0E0,0E0,0E0,0E0,0E0,0E0,0E0,0E0,0E0,0E0,0E0],"parents":[2147483647,0,0,1,1,2,2,3,3,4,4,5,5,6,6,7,7,8,8,9,9,10,10,12,12,13,13,14,14,15,15,16,16,18,18,19,19,20,20,21,21,22,22,25,25,26,26,27,27,28,28,29,29,30,30,31,31,32,32,35,35,36,36,37,37,38,38,39,39,40,40,42,42,43,43,45,45,46,46,48,48,50,50],"right_children":[2,4,6,8,10,12,14,16,18,20,22,-1,24,26,28,30,32,-1,34,36,38,40,42,-1,-1,44,46,48,50,52,54,56,58,-1,-1,60,62,64,66,68,70,-1,72,74,-1,76,78,-1,80,-1,82,-1,-1,-1,-1,-1,-1,-1,-1,-1,-1,-1,-1,-1,-1,-1,-1,-1,-1,-1,-1,-1,-1,-1,-1,-1,-1,-1,-1,-1,-1,-1,-1],"split_conditions":[3E0,4E0,3.7E0,1.6408839E0,1.199E3,2.9E0,5E0,9.9E2,2.2050595E-1,8.25E2,2.6802433E0,-1.8466692E-1,7.21E2,3.9E0,2.5E1,3.466899E-1,2.53E2,-9.249039E-2,2.1175337E0,4.2E0,2E0,2.799E4,1.545E3,-1.24082126E-1,-6.804161E-2,3.08E3,4.8666668E-1,9.9E1,6E0,6.95E2,4.4E2,1.5E2,1.5999E4,-4.4806715E-2,-6.8648554E-2,3.5E2,2E0,2.2120613E-1,4.17E2,1.3073319E-1,3.8348484E-1,1.8935138E-2,8.51E2,6.5E2,-3.4584966E-2,2.05E2,5.09E2,-2.6783396E-2,3.17E2,1.802657E-2,5.56E2,2.8362616E-3,-9.497928E-3,-2.0985229E-2,-4.4806715E-2,-2.0985229E-2,-4.4806715E-2,2.8362616E-3,-2.0985229E-2,1.9465763E-2,2.8362616E-3,6.384178E-2,1.9465763E-2,2.9732777E-2,2.8362616E-3,2.8362616E-3,6.436244E-2,1.8935138E-2,4.2014167E-2,1.8935138E-2,6.51117E-2,2.8362616E-3,1.8228129E-2,-3.4584966E-2,-6.804161E-2,-6.638178E-3,-2.4253687E-2,-6.638178E-3,6.32629E-2,-8.373584E-3,1.2703004E-2,2.2033572E-2,6.363585E-2],"split_indices":[7,3,3,5,1,3,7,1,6,1,5,0,4,3,2,5,4,0,5,3,7,1,1,0,0,1,6,1,7,1,1,0,1,0,0,1,7,5,4,6,6,0,4,1,0,0,4,0,4,0,4,0,0,0,0,0,0,0,0,0,0,0,0,0,0,0,0,0,0,0,0,0,0,0,0,0,0,0,0,0,0,0,0],"split_type":[0,0,0,0,0,0,0,0,0,0,0,0,0,0,0,0,0,0,0,0,0,0,0,0,0,0,0,0,0,0,0,0,0,0,0,0,0,0,0,0,0,0,0,0,0,0,0,0,0,0,0,0,0,0,0,0,0,0,0,0,0,0,0,0,0,0,0,0,0,0,0,0,0,0,0,0,0,0,0,0,0,0,0],"sum_hessian":[1.169E3,7.8E2,3.89E2,1.64E2,6.16E2,3.4E1,3.55E2,1.52E2,1.2E1,2.49E2,3.67E2,4E0,3E1,3.27E2,2.8E1,5.7E1,9.5E1,8E0,4E0,1.59E2,9E1,3.47E2,2E1,1.7E1,1.3E1,3.9E1,2.88E2,2.1E1,7E0,1.1E1,4.6E1,4E0,9.1E1,3E0,1E0,6.4E1,9.5E1,7.1E1,1.9E1,3E2,4.7E1,1E0,1.9E1,2.2E1,1.7E1,2.64E2,2.4E1,1E0,2E1,2E0,5E0,8E0,3E0,8E0,3.8E1,1E0,3E0,8.1E1,1E1,1.2E1,5.2E1,5.2E1,4.3E1,1E0,7E1,6E0,1.3E1,1.9E1,2.81E2,4.4E1,3E0,1.3E1,6E0,3E0,1.9E1,1.5E1,2.49E2,1.4E1,1E1,8E0,1.2E1,3E0,2E0],"tree_param":{"num_deleted":"0","num_feature":"8","num_nodes":"83","size_leaf_vector":"1"}},{"base_weights":[-1.4831752E-2,2.5586444E-1,-5.589695E-1,-4.7877613E-1,3.7051144E-1,-1.9862852E0,-3.7117767E-1,-5.4132342E-2,-7.5479037E-1,1.8901157E-1,6.627042E-1,-2.5811775E0,-1.4071245E0,-4.2270523E-1,2.0487121E-1,-7.269184E-1,-5.4132342E-2,-1.3554316E0,-5.4132342E-2,-5.4132342E-2,3.128548E-1,7.939403E-1,1.376369E-1,-9.970755E-2,-1.7526077E-1,-9.970755E-2,-5.8936574E-2,-4.7123328E-1,1.6295142E-1,1.5637897E-2,6.2365216E-1,-1.952627E-2,-7.734672E-2,-1.952627E-2,-2.7066171E-3,-1.598545E0,-3.5239097E-2,-7.0478195E-1,-5.4132342E-2,-5.4132342E-2,1.2936123E-1,1.2936123E-1,4.0894946E-1,9.007259E-1,1.5861826E-1,4.562313E-2,6.266999E-2,-5.6719816E-1,-1.8473274E-1,-1.5414092E-1,1.2077463E0,1.021399E-1,-1.8876528E-2,-3.724416E-2,8.178002E-1,-5.7583172E-2,-8.618813E-2,-3.5239097E-2,-1.8972857E-2,-2.7066171E-3,-1.8972857E-2,-2.7066171E-3,6.4680614E-3,6.4680614E-3,-2.7066171E-3,6.4680614E-3,1.3457768E-2,3.191461E-2,1.3457768E-2,5.7992358E-2,3.350053E-2,2.6483605E-2,-2.7066171E-3,1.27989305E-2,-2.7066171E-3,-4.1575547E-2,-2.0900896E-2,-7.707046E-3,-4.0948365E-2,2.6340133E-2,-7.707046E-3,8.48335E-2,4.0615804E-2,-6.884767E-3,8.47962E-3,8.101749E-3,-1.0895061E-2,5.646571E-2,1.5091813E-2],"categories":[],"categories_nodes":[],"categories_segments":[],"categories_sizes":[],"default_left":[0,0,0,0,0,0,0,0,0,0,0,0,0,0,0,0,0,0,0,0,0,0,0,0,0,0,0,0,0,0,0,0,0,0,0,0,0,0,0,0,0,0,0,0,0,0,0,0,0,0,0,0,0,0,0,0,0,0,0,0,0,0,0,0,0,0,0,0,0,0,0,0,0,0,0,0,0,0,0,0,0,0,0,0,0,0,0,0,0],"id":6,"left_children":[1,3,5,7,9,11,13,15,17,19,21,23,25,27,29,31,33,35,37,39,41,43,45,-1,-1,-1,-1,47,49,51,53,-1,-1,-1,-1,55,-1,57,59,61,63,65,67,69,71,73,-1,75,77,79,81,83,-1,85,87,-1,-1,-1,-1,-1,-1,-1,-1,-1,-1,-1,-1,-1,-1,-1,-1,-1,-1,-1,-1,-1,-1,-1,-1,-1,-1,-1,-1,-1,-1,-1,-1,-1,-1],"loss_changes":[1.7247935E2,6.604084E1,1.0352962E2,1.7211103E1,3.5778053E1,1.1872192E1,1.0327007E1,1.3549929E0,3.4790813E1,1.9131758E1,1.7737839E1,9.336594E0,8.528469E0,9.086174E0,2.2884192E0,2.1825726E0,5.4145765E-1,1.0480034E1,1.179955E1,2.3168447E0,8.705616E0,1.3900681E1,5.3840904E0,0E0,0E0,0E0,0E0,7.9509583E0,1.786465E1,7.52768E-1,1.1852639E0,0E0,0E0,0E0,0E0,2.6124802E0,0E0,2.2519894E0,2.5702066E0,5.7443476E-1,1.5422573E0,2.66067E0,9.037861E0,9.804535E0,7.0249815E0,2.6730824E0,0E0,8.287636E0,7.861947E0,2.0074236E0,7.4845886E-1,5.50901E-1,0E0,1.4331117E-1,7.8424215E-1,0E0,0E0,0E0,0E0,0E0,0E0,0E0,0E0,0E0,0E0,0E0,0E0,0E0,0E0,0E0,0E0,0E0,0E0,0E0,0E0,0E0,0E0,0E0,0E0,0E0,0E0,0E0,0E0,0E0,0E0,0E0,0E0,0E0,0E0],"parents":[2147483647,0,0,1,1,2,2,3,3,4,4,5,5,6,6,7,7,8,8,9,9,10,10,11,11,12,12,13,13,14,14,15,15,16,16,17,17,18,18,19,19,20,20,21,21,22,22,27,27,28,28,29,29,30,30,35,35,37,37,38,38,39,39,40,40,41,41,42,42,43,43,44,44,45,45,47,47,48,48,49,49,50,50,51,51,53,53,54,54],"right_children":[2,4,6,8,10,12,14,16,18,20,22,24,26,28,30,32,34,36,38,40,42,44,46,-1,-1,-1,-1,48,50,52,54,-1,-1,-1,-1,56,-1,58,60,62,64,66,68,70,72,74,-1,76,78,80,82,84,-1,86,88,-1,-1,-1,-1,-1,-1,-1,-1,-1,-1,-1,-1,-1,-1,-1,-1,-1,-1,-1,-1,-1,-1,-1,-1,-1,-1,-1,-1,-1,-1,-1,-1,-1,-1],"split_conditions":[4E0,3.9E0,3.8E0,2E0,2E3,3.6E0,5E0,6.7E1,8.26E2,1.8786061E-1,2.799E4,5.22E2,1.6E3,4.8666668E-1,5.5E2,1.15E2,1E0,7.6E1,3.7E0,1.5E3,3.93E2,1.6667901E0,3.8348484E-1,-9.970755E-2,-1.7526077E-1,-9.970755E-2,-5.8936574E-2,4.999E3,5.09E2,1.1152416E0,6E0,-1.952627E-2,-7.734672E-2,-1.952627E-2,-2.7066171E-3,1.97E2,-3.5239097E-2,7.7E1,2.088E3,1.931E3,1.999E3,1E3,8.25E2,2.439E3,3.595E3,4.999E4,6.266999E-2,4.1E0,1.599E4,3.15E2,6.8047756E-1,9.9E1,-1.8876528E-2,2.53E2,1.2562578E0,-5.7583172E-2,-8.618813E-2,-3.5239097E-2,-1.8972857E-2,-2.7066171E-3,-1.8972857E-2,-2.7066171E-3,6.4680614E-3,6.4680614E-3,-2.7066171E-3,6.4680614E-3,1.3457768E-2,3.191461E-2,1.3457768E-2,5.7992358E-2,3.350053E-2,2.6483605E-2,-2.7066171E-3,1.27989305E-2,-2.7066171E-3,-4.1575547E-2,-2.0900896E-2,-7.707046E-3,-4.0948365E-2,2.6340133E-2,-7.707046E-3,8.48335E-2,4.0615804E-2,-6.884767E-3,8.47962E-3,8.101749E-3,-1.0895061E-2,5.646571E-2,1.5091813E-2],"split_indices":[7,3,3,7,1,3,7,4,4,6,1,0,1,6,1,0,7,2,3,1,4,5,6,0,0,0,0,1,4,5,7,0,0,0,0,0,0,2,0,4,1,1,1,0,1,1,0,3,1,1,5,1,0,0,5,0,0,0,0,0,0,0,0,0,0,0,0,0,0,0,0,0,0,0,0,0,0,0,0,0,0,0,0,0,0,0,0,0,0],"split_type":[0,0,0,0,0,0,0,0,0,0,0,0,0,0,0,0,0,0,0,0,0,0,0,0,0,0,0,0,0,0,0,0,0,0,0,0,0,0,0,0,0,0,0,0,0,0,0,0,0,0,0,0,0,0,0,0,0,0,0,0,0,0,0,0,0,0,0,0,0,0,0,0,0,0,0,0,0,0,0,0,0,0,0,0,0,0,0,0,0],"sum_hessian":[1.169E3,7.81E2,3.88E2,1.05E2,6.76E2,4.4E1,3.44E2,3.2E1,7.3E1,4.18E2,2.58E2,2E1,2.4E1,3.16E2,2.8E1,2E0,3E1,4.1E1,3.2E1,9.3E1,3.25E2,2.06E2,5.2E1,1.2E1,8E0,1E1,1.4E1,2.92E2,2.4E1,2E1,8E0,1E0,1E0,1E0,2.9E1,3.5E1,6E0,1E1,2.2E1,7.7E1,1.6E1,7.4E1,2.51E2,1.76E2,3E1,4.9E1,3E0,2.18E2,7.4E1,1.4E1,1E1,1.7E1,3E0,2E0,6E0,2E0,3.3E1,7E0,3E0,1.9E1,3E0,7.6E1,1E0,1.2E1,4E0,4.1E1,3.3E1,1.02E2,1.49E2,8.1E1,9.5E1,1.7E1,1.3E1,3.2E1,1.7E1,7.7E1,1.41E2,5.7E1,1.7E1,3E0,1.1E1,3E0,7E0,1E0,1.6E1,1E0,1E0,3E0,3E0],"tree_param":{"num_deleted":"0","num_feature":"8","num_nodes":"89","size_leaf_vector":"1"}},{"base_weights":[-1.4847818E-2,2.4241866E-1,-5.3000236E-1,-2.8996006E-1,3.8439608E-1,-2.0947835E0,-3.7467274E-1,-1.7441921E0,-2.0474955E-1,1.2692744E-1,5.582623E-1,-1.7178087E-1,-1.8109463E0,1.6744298E-1,-4.3057758E-1,-4.8723545E-2,-1.07530646E-1,-1.06833786E-1,-9.7447085E-1,5.292888E-1,4.721801E-2,6.361684E-1,4.721801E-2,-1.1291795E-1,-6.1736405E-2,-1.315673E-1,4.9693304E-1,-5.8412886E-1,-1.9512735E-1,-5.4065233E-1,4.721801E-2,-5.4065233E-1,-9.7447085E-1,4.721801E-2,8.403415E-1,4.721801E-2,3.8235736E-1,7.2305524E-1,3.4169322E-1,1.7084662E-2,4.721801E-2,-1.315673E-1,1.6972725E-1,1.8268287E-1,1.4924065E0,-1.2347281E0,-4.1560894E-1,-1.3295777E-1,-6.1736405E-2,2.3609006E-3,-2.7032617E-2,2.3609006E-3,-2.7032617E-2,-4.8723545E-2,-2.7032617E-2,-4.8723545E-2,-2.7032617E-2,1.9501878E-2,2.3609006E-3,2.218899E-2,5.2470844E-2,2.3609006E-3,1.0739385E-2,6.6042505E-2,1.0739385E-2,1.7084662E-2,3.8457118E-2,1.7084662E-2,6.031988E-2,2.3609006E-3,1.7008033E-2,-6.578365E-3,9.134144E-3,9.134144E-3,-6.578365E-3,9.134144E-3,2.4551023E-2,8.542305E-2,4.1877236E-2,-6.1736405E-2,-4.1258425E-2,-1.563841E-2,-4.1258425E-2,-6.578365E-3,-3.419215E-2],"categories":[],"categories_nodes":[],"categories_segments":[],"categories_sizes":[],"default_left":[0,0,0,0,0,0,0,0,0,0,0,0,0,0,0,0,0,0,0,0,0,0,0,0,0,0,0,0,0,0,0,0,0,0,0,0,0,0,0,0,0,0,0,0,0,0,0,0,0,0,0,0,0,0,0,0,0,0,0,0,0,0,0,0,0,0,0,0,0,0,0,0,0,0,0,0,0,0,0,0,0,0,0,0,0],"id":7,"left_children":[1,3,5,7,9,11,13,15,17,19,21,-1,23,25,27,-1,-1,29,31,33,35,37,39,-1,-1,41,43,45,47,49,51,53,55,57,59,61,63,65,67,-1,69,71,73,75,77,79,81,83,-1,-1,-1,-1,-1,-1,-1,-1,-1,-1,-1,-1,-1,-1,-1,-1,-1,-1,-1,-1,-1,-1,-1,-1,-1,-1,-1,-1,-1,-1,-1,-1,-1,-1,-1,-1,-1],"loss_changes":[1.551909E2,5.9143917E1,9.40073E1,2.0088993E1,2.7549225E1,7.098526E0,1.0861343E1,3.4013329E0,1.6693207E1,1.0726163E1,2.4596764E1,0E0,7.0433655E0,5.2381134E0,1.15636635E1,0E0,0E0,1.6158964E1,5.705452E-2,1.03265915E1,4.6028237E0,1.3482727E1,7.9471964E-1,0E0,0E0,5.2736044E-1,6.4696918E0,3.2011406E1,1.2007284E1,1.5766766E1,6.609882E0,1.0514754E-1,4.4566154E-1,1.2905482E0,5.1455536E0,2.3813725E0,2.8163574E1,7.631714E0,2.8740997E0,0E0,5.984782E-1,7.650863E-1,5.953921E-1,3.469152E-1,1.8827915E-1,1.1273956E0,1.0996124E1,3.1691895E0,0E0,0E0,0E0,0E0,0E0,0E0,0E0,0E0,0E0,0E0,0E0,0E0,0E0,0E0,0E0,0E0,0E0,0E0,0E0,0E0,0E0,0E0,0E0,0E0,0E0,0E0,0E0,0E0,0E0,0E0,0E0,0E0,0E0,0E0,0E0,0E0,0E0],"parents":[2147483647,0,0,1,1,2,2,3,3,4,4,5,5,6,6,7,7,8,8,9,9,10,10,12,12,13,13,14,14,17,17,18,18,19,19,20,20,21,21,22,22,25,25,26,26,27,27,28,28,29,29,30,30,31,31,32,32,33,33,34,34,35,35,36,36,37,37,38,38,40,40,41,41,42,42,43,43,44,44,45,45,46,46,47,47],"right_children":[2,4,6,8,10,12,14,16,18,20,22,-1,24,26,28,-1,-1,30,32,34,36,38,40,-1,-1,42,44,46,48,50,52,54,56,58,60,62,64,66,68,-1,70,72,74,76,78,80,82,84,-1,-1,-1,-1,-1,-1,-1,-1,-1,-1,-1,-1,-1,-1,-1,-1,-1,-1,-1,-1,-1,-1,-1,-1,-1,-1,-1,-1,-1,-1,-1,-1,-1,-1,-1,-1,-1],"split_conditions":[3E0,4E0,3.7E0,5E-2,1.199E3,2.9E0,2.05E2,5.35E2,1.6408839E0,4.99E2,2.6802433E0,-1.7178087E-1,7.21E2,2.2220697E-1,3.08E3,-4.8723545E-2,-1.07530646E-1,9.9E2,2E0,2.3501985E-1,4.4E0,2.799E4,1.545E3,-1.1291795E-1,-6.1736405E-2,3.15E2,5.04E2,3.9E0,2.9858623E0,3.840761E-1,5.999E3,1.499E3,3.9E0,2E0,2.5E2,2E0,8.25E2,1.3073319E-1,3.8348484E-1,1.7084662E-2,8.51E2,1.375E-1,5.35E2,5.8E-1,4.99E2,5E0,2.4E3,2.4999E4,-6.1736405E-2,2.3609006E-3,-2.7032617E-2,2.3609006E-3,-2.7032617E-2,-4.8723545E-2,-2.7032617E-2,-4.8723545E-2,-2.7032617E-2,1.9501878E-2,2.3609006E-3,2.218899E-2,5.2470844E-2,2.3609006E-3,1.0739385E-2,6.6042505E-2,1.0739385E-2,1.7084662E-2,3.8457118E-2,1.7084662E-2,6.031988E-2,2.3609006E-3,1.7008033E-2,-6.578365E-3,9.134144E-3,9.134144E-3,-6.578365E-3,9.134144E-3,2.4551023E-2,8.542305E-2,4.1877236E-2,-6.1736405E-2,-4.1258425E-2,-1.563841E-2,-4.1258425E-2,-6.578365E-3,-3.419215E-2],"split_indices":[7,3,3,6,1,3,0,1,5,1,5,0,4,6,1,0,0,1,7,6,3,1,1,0,0,1,4,3,5,5,0,1,3,7,1,7,1,6,6,0,4,6,1,6,1,7,1,1,0,0,0,0,0,0,0,0,0,0,0,0,0,0,0,0,0,0,0,0,0,0,0,0,0,0,0,0,0,0,0,0,0,0,0,0,0],"split_type":[0,0,0,0,0,0,0,0,0,0,0,0,0,0,0,0,0,0,0,0,0,0,0,0,0,0,0,0,0,0,0,0,0,0,0,0,0,0,0,0,0,0,0,0,0,0,0,0,0,0,0,0,0,0,0,0,0,0,0,0,0,0,0,0,0,0,0,0,0,0,0,0,0,0,0,0,0,0,0,0,0,0,0,0,0],"sum_hessian":[1.169E3,7.8E2,3.89E2,1.64E2,6.16E2,3.4E1,3.55E2,8E0,1.56E2,2.49E2,3.67E2,4E0,3E1,3.3E1,3.22E2,2E0,6E0,1.46E2,1E1,5.2E1,1.97E2,3.47E2,2E1,1.7E1,1.3E1,1.3E1,2E1,1.94E2,1.28E2,5.3E1,9.3E1,2E0,8E0,1.7E1,3.5E1,1.57E2,4E1,3E2,4.7E1,1E0,1.9E1,8E0,5E0,1.6E1,4E0,2.2E1,1.72E2,1.25E2,3E0,1.7E1,3.6E1,8E1,1.3E1,1E0,1E0,7E0,1E0,1E1,7E0,6E0,2.9E1,1.15E2,4.2E1,2.3E1,1.7E1,1.9E1,2.81E2,4.4E1,3E0,1.3E1,6E0,4E0,4E0,4E0,1E0,1.3E1,3E0,3E0,1E0,2.1E1,1E0,1.54E2,1.8E1,1.19E2,6E0],"tree_param":{"num_deleted":"0","num_feature":"8","num_nodes":"85","size_leaf_vector":"1"}},{"base_weights":[-1.9703832E-2,2.2375125E-1,-5.0906676E-1,-4.294331E-1,3.2569185E-1,-1.8050424E0,-3.3855087E-1,-3.0414048E-1,-1.6018282E0,1.5560798E-1,5.9958935E-1,-2.0519114E0,-5.3589832E-2,-3.8656718E-1,1.979911E-1,-6.1148703E-1,-5.187063E-2,-4.7649216E-2,-9.328808E-2,-5.187063E-2,2.7090576E-1,6.681986E-1,-5.187063E-2,-1.6490963E-1,-1.8009019E0,-4.7657642E-1,-1.0936744E-1,1.1787687E-2,6.104667E-1,-3.3167884E-1,-9.5298433E-1,-3.3167884E-1,-5.187063E-2,-5.187063E-2,1.0951757E-1,1.0951757E-1,3.7632194E-1,-5.187063E-2,7.1159387E-1,-2.5935315E-3,4.3836287E-1,-2.0837486E0,-1.1322743E0,-2.3141132E-1,-6.803579E-1,5.2044964E-1,-3.7733606E-1,9.189558E-2,-1.7582238E-2,-2.588749E-2,7.9598045E-1,-3.4320172E-2,-1.6583942E-2,-4.7649216E-2,-1.6583942E-2,-1.6583942E-2,-9.588736E-3,-2.5935315E-3,-9.588736E-3,-2.5935315E-3,5.4758782E-3,5.4758782E-3,-2.5935315E-3,2.9156774E-2,5.4758782E-3,1.06813245E-1,1.5244334E-2,1.4316234E-2,-2.5935315E-3,3.8860615E-2,1.649308E-2,-2.5935315E-3,4.338413E-2,-6.8281084E-2,-1.2747736E-1,-8.42817E-2,-5.3589832E-2,-2.3800177E-2,1.4229198E-2,-3.5256557E-2,6.288476E-2,7.4842456E-3,6.997474E-2,-1.4436716E-2,-5.3589832E-2,-6.4937295E-3,7.943891E-3,8.290172E-3,-1.0231733E-2,5.5254925E-2,1.4393366E-2],"categories":[],"categories_nodes":[],"categories_segments":[],"categories_sizes":[],"default_left":[0,0,0,0,0,0,0,0,0,0,0,0,0,0,0,0,0,0,0,0,0,0,0,0,0,0,0,0,0,0,0,0,0,0,0,0,0,0,0,0,0,0,0,0,0,0,0,0,0,0,0,0,0,0,0,0,0,0,0,0,0,0,0,0,0,0,0,0,0,0,0,0,0,0,0,0,0,0,0,0,0,0,0,0,0,0,0,0,0,0,0],"id":8,"left_children":[1,3,5,7,9,11,13,15,17,19,21,23,-1,25,27,29,31,-1,-1,33,35,37,39,-1,41,43,45,47,49,51,53,55,57,59,61,63,65,67,69,-1,71,73,75,77,79,81,83,85,-1,87,89,-1,-1,-1,-1,-1,-1,-1,-1,-1,-1,-1,-1,-1,-1,-1,-1,-1,-1,-1,-1,-1,-1,-1,-1,-1,-1,-1,-1,-1,-1,-1,-1,-1,-1,-1,-1,-1,-1,-1,-1],"loss_changes":[1.3950525E2,5.2210117E1,8.535182E1,1.508342E1,3.1445114E1,1.0200165E1,8.964691E0,1.4180304E1,1.5471306E0,1.6028824E1,1.5554604E1,5.6349335E0,0E0,7.857197E0,2.2201312E0,2.1853199E1,3.0110288E0,0E0,0E0,1.9525995E0,8.199291E0,1.0330986E1,1.6796114E0,0E0,3.8815536E0,1.1783016E1,1.352931E1,6.4370453E-1,1.0830781E0,2.6747704E-1,5.79393E0,1.0339503E0,2.7515936E-1,5.079448E-1,1.3562038E0,9.409189E0,2.8893353E1,5.691898E-1,5.9630737E0,0E0,2.5428984E0,6.9483337E0,3.1454659E-1,1.4018391E1,7.1283913E0,7.61257E0,4.9558983E0,5.152817E-1,0E0,1.3672177E-1,7.813463E-1,0E0,0E0,0E0,0E0,0E0,0E0,0E0,0E0,0E0,0E0,0E0,0E0,0E0,0E0,0E0,0E0,0E0,0E0,0E0,0E0,0E0,0E0,0E0,0E0,0E0,0E0,0E0,0E0,0E0,0E0,0E0,0E0,0E0,0E0,0E0,0E0,0E0,0E0,0E0,0E0],"parents":[2147483647,0,0,1,1,2,2,3,3,4,4,5,5,6,6,7,7,8,8,9,9,10,10,11,11,13,13,14,14,15,15,16,16,19,19,20,20,21,21,22,22,24,24,25,25,26,26,27,27,28,28,29,29,30,30,31,31,32,32,33,33,34,34,35,35,36,36,37,37,38,38,40,40,41,41,42,42,43,43,44,44,45,45,46,46,47,47,49,49,50,50],"right_children":[2,4,6,8,10,12,14,16,18,20,22,24,-1,26,28,30,32,-1,-1,34,36,38,40,-1,42,44,46,48,50,52,54,56,58,60,62,64,66,68,70,-1,72,74,76,78,80,82,84,86,-1,88,90,-1,-1,-1,-1,-1,-1,-1,-1,-1,-1,-1,-1,-1,-1,-1,-1,-1,-1,-1,-1,-1,-1,-1,-1,-1,-1,-1,-1,-1,-1,-1,-1,-1,-1,-1,-1,-1,-1,-1,-1],"split_conditions":[4E0,3.9E0,3.8E0,4.28E3,2E3,3.08E3,5E0,8.26E2,7.2E3,1.8500216E-1,4.999E4,2.9E0,-5.3589832E-2,4.999E3,5.5E2,2E0,3.7E0,-4.7649216E-2,-9.328808E-2,1.5E3,6.4E2,1.85E2,6.9999E4,-1.6490963E-1,1.6E3,1.499E3,6.7E3,1.1152416E0,6E0,6.7E1,7.6E1,3.5E3,2.199E3,1.931E3,1.999E3,4.99E2,6.99E2,1.295E3,1.6667901E0,-2.5935315E-3,1.6854167E-1,4.49E2,3.6E0,1E3,4.8E0,8.72E2,2.9858623E0,9.9E1,-1.7582238E-2,2.53E2,1.2562578E0,-3.4320172E-2,-1.6583942E-2,-4.7649216E-2,-1.6583942E-2,-1.6583942E-2,-9.588736E-3,-2.5935315E-3,-9.588736E-3,-2.5935315E-3,5.4758782E-3,5.4758782E-3,-2.5935315E-3,2.9156774E-2,5.4758782E-3,1.06813245E-1,1.5244334E-2,1.4316234E-2,-2.5935315E-3,3.8860615E-2,1.649308E-2,-2.5935315E-3,4.338413E-2,-6.8281084E-2,-1.2747736E-1,-8.42817E-2,-5.3589832E-2,-2.3800177E-2,1.4229198E-2,-3.5256557E-2,6.288476E-2,7.4842456E-3,6.997474E-2,-1.4436716E-2,-5.3589832E-2,-6.4937295E-3,7.943891E-3,8.290172E-3,-1.0231733E-2,5.5254925E-2,1.4393366E-2],"split_indices":[7,3,3,0,1,1,7,4,1,6,1,3,0,1,1,7,3,0,0,1,1,4,1,0,1,1,1,5,7,4,2,1,0,4,1,1,1,0,5,0,6,0,3,1,3,4,5,1,0,0,5,0,0,0,0,0,0,0,0,0,0,0,0,0,0,0,0,0,0,0,0,0,0,0,0,0,0,0,0,0,0,0,0,0,0,0,0,0,0,0,0],"split_type":[0,0,0,0,0,0,0,0,0,0,0,0,0,0,0,0,0,0,0,0,0,0,0,0,0,0,0,0,0,0,0,0,0,0,0,0,0,0,0,0,0,0,0,0,0,0,0,0,0,0,0,0,0,0,0,0,0,0,0,0,0,0,0,0,0,0,0,0,0,0,0,0,0,0,0,0,0,0,0,0,0,0,0,0,0,0,0,0,0,0,0],"sum_hessian":[1.169E3,7.81E2,3.88E2,1.05E2,6.76E2,4.4E1,3.44E2,9.6E1,9E0,4.18E2,2.58E2,3.6E1,8E0,3.16E2,2.8E1,6.4E1,3.2E1,2E0,7E0,9.2E1,3.26E2,2.41E2,1.7E1,4E0,3.2E1,2.38E2,7.8E1,2E1,8E0,2.6E1,3.8E1,1E1,2.2E1,7.6E1,1.6E1,9.2E1,2.34E2,9E0,2.32E2,1.1E1,6E0,2.1E1,1.1E1,1.09E2,1.29E2,2.3E1,5.5E1,1.7E1,3E0,2E0,6E0,2E0,2.4E1,3.2E1,6E0,5E0,5E0,2.1E1,1E0,7.5E1,1E0,1.2E1,4E0,4.1E1,5.1E1,8E0,2.26E2,4E0,5E0,1.99E2,3.3E1,2E0,4E0,1.2E1,9E0,3E0,8E0,7.4E1,3.5E1,1.28E2,1E0,1.7E1,6E0,5.3E1,2E0,1E0,1.6E1,1E0,1E0,3E0,3E0],"tree_param":{"num_deleted":"0","num_feature":"8","num_nodes":"91","size_leaf_vector":"1"}},{"base_weights":[-2.1044029E-2,2.1004398E-1,-4.8375863E-1,-1.4765401E0,2.4724905E-1,-1.9109881E0,-3.4208223E-1,-2.0274694E0,-3.0732278E-2,-3.709992E-1,3.4077662E-1,-1.5831323E-1,-1.6468794E0,1.6340534E-1,-3.9423236E-1,-3.0732278E-2,-2.3639166E0,-1.51112825E-2,-6.1464554E-1,1.8994431E-1,5.9039843E-1,-2.0796635E0,-5.6326758E-2,-1.1541351E-1,4.7999278E-1,-5.410268E-1,-1.692778E-1,-1.6585788E-1,-1.5918067E0,-6.1464554E-1,-1.51112825E-2,-6.1464554E-1,-1.51112825E-2,8.605025E-2,4.0321112E-1,7.2280204E-1,8.461909E-2,-1.17906965E-1,-8.015497E-2,-1.1541351E-1,1.8228963E-1,1.8228963E-1,1.4441782E0,-1.1265352E0,-3.7963653E-1,-1.1541351E-1,-5.6326758E-2,-3.0732278E-2,-8.55666E-2,-1.574392E-2,-3.0732278E-2,-1.574392E-2,-7.5556414E-4,-1.574392E-2,-3.0732278E-2,-1.574392E-2,-7.5556414E-4,-7.5556414E-4,1.8477885E-2,-7.5556414E-4,3.3681016E-2,4.130174E-2,3.3265352E-3,-4.3237687E-5,5.660062E-2,-5.7706754E-3,9.1144815E-3,9.1144815E-3,-5.7706754E-3,9.1144815E-3,2.2217035E-2,8.311217E-2,4.0661696E-2,-5.6326758E-2,-3.765429E-2,-1.4075196E-2,-3.765429E-2,-5.7706754E-3,-3.1048719E-2],"categories":[],"categories_nodes":[],"categories_segments":[],"categories_sizes":[],"default_left":[0,0,0,0,0,0,0,0,0,0,0,0,0,0,0,0,0,0,0,0,0,0,0,0,0,0,0,0,0,0,0,0,0,0,0,0,0,0,0,0,0,0,0,0,0,0,0,0,0,0,0,0,0,0,0,0,0,0,0,0,0,0,0,0,0,0,0,0,0,0,0,0,0,0,0,0,0,0,0],"id":9,"left_children":[1,3,5,7,9,11,13,15,-1,17,19,-1,21,23,25,-1,27,29,31,33,35,37,-1,39,41,43,45,-1,47,49,51,53,55,57,59,61,63,-1,-1,65,67,69,71,73,75,77,-1,-1,-1,-1,-1,-1,-1,-1,-1,-1,-1,-1,-1,-1,-1,-1,-1,-1,-1,-1,-1,-1,-1,-1,-1,-1,-1,-1,-1,-1,-1,-1,-1],"loss_changes":[1.2520713E2,4.937242E1,7.8206116E1,1.4938557E1,4.4361214E1,6.389084E0,9.449028E0,5.336651E0,0E0,1.2821485E1,2.4925789E1,0E0,6.689575E0,4.788203E0,1.0574543E1,0E0,2.8158073E0,1.2539191E0,1.701648E1,9.182677E0,1.6680588E1,1.8305969E-1,0E0,5.530642E-1,6.067414E0,2.8390366E1,1.0951537E1,0E0,4.025097E-1,7.5780237E-1,5.375948E-1,3.10038E0,3.0378113E0,2.139123E1,2.2212706E1,1.3359291E1,4.746344E0,0E0,0E0,7.20446E-1,5.546782E-1,3.1012428E-1,2.3146534E-1,1.0039368E0,9.775902E0,2.888506E0,0E0,0E0,0E0,0E0,0E0,0E0,0E0,0E0,0E0,0E0,0E0,0E0,0E0,0E0,0E0,0E0,0E0,0E0,0E0,0E0,0E0,0E0,0E0,0E0,0E0,0E0,0E0,0E0,0E0,0E0,0E0,0E0,0E0],"parents":[2147483647,0,0,1,1,2,2,3,3,4,4,5,5,6,6,7,7,9,9,10,10,12,12,13,13,14,14,16,16,17,17,18,18,19,19,20,20,21,21,23,23,24,24,25,25,26,26,28,28,29,29,30,30,31,31,32,32,33,33,34,34,35,35,36,36,39,39,40,40,41,41,42,42,43,43,44,44,45,45],"right_children":[2,4,6,8,10,12,14,16,-1,18,20,-1,22,24,26,-1,28,30,32,34,36,38,-1,40,42,44,46,-1,48,50,52,54,56,58,60,62,64,-1,-1,66,68,70,72,74,76,78,-1,-1,-1,-1,-1,-1,-1,-1,-1,-1,-1,-1,-1,-1,-1,-1,-1,-1,-1,-1,-1,-1,-1,-1,-1,-1,-1,-1,-1,-1,-1,-1,-1],"split_conditions":[3E0,5E-2,3.7E0,1.2999E4,3.9E0,2.9E0,2.05E2,5.35E2,-3.0732278E-2,2E0,2.199E3,-1.5831323E-1,7.21E2,2.2220697E-1,3.08E3,-3.0732278E-2,-2.6262626E-2,6.7E1,7.5E1,2E0,2.799E4,3.6E0,-5.6326758E-2,3.15E2,5.04E2,3.9E0,2.9858623E0,-1.6585788E-1,3.14E2,1.15E2,1E0,4.4E2,4.295E3,4.2E0,6.4E2,1.6667901E0,3.8348484E-1,-1.17906965E-1,-8.015497E-2,1.375E-1,5.35E2,5.657143E-1,4.99E2,5E0,2.4E3,2.4999E4,-5.6326758E-2,-3.0732278E-2,-8.55666E-2,-1.574392E-2,-3.0732278E-2,-1.574392E-2,-7.5556414E-4,-1.574392E-2,-3.0732278E-2,-1.574392E-2,-7.5556414E-4,-7.5556414E-4,1.8477885E-2,-7.5556414E-4,3.3681016E-2,4.130174E-2,3.3265352E-3,-4.3237687E-5,5.660062E-2,-5.7706754E-3,9.1144815E-3,9.1144815E-3,-5.7706754E-3,9.1144815E-3,2.2217035E-2,8.311217E-2,4.0661696E-2,-5.6326758E-2,-3.765429E-2,-1.4075196E-2,-3.765429E-2,-5.7706754E-3,-3.1048719E-2],"split_indices":[7,6,3,1,3,3,0,1,0,7,1,0,4,6,1,0,6,4,2,7,1,3,0,1,4,3,5,0,0,0,7,1,1,3,1,5,6,0,0,6,1,6,1,7,1,1,0,0,0,0,0,0,0,0,0,0,0,0,0,0,0,0,0,0,0,0,0,0,0,0,0,0,0,0,0,0,0,0,0],"split_type":[0,0,0,0,0,0,0,0,0,0,0,0,0,0,0,0,0,0,0,0,0,0,0,0,0,0,0,0,0,0,0,0,0,0,0,0,0,0,0,0,0,0,0,0,0,0,0,0,0,0,0,0,0,0,0,0,0,0,0,0,0,0,0,0,0,0,0,0,0,0,0,0,0,0,0,0,0,0,0],"sum_hessian":[1.169E3,7.8E2,3.89E2,1.6E1,7.64E2,3.4E1,3.55E2,1.3E1,3E0,1E2,6.64E2,4E0,3E1,3.3E1,3.22E2,3E0,1E1,3.1E1,6.9E1,4.15E2,2.49E2,1.7E1,1.3E1,1.3E1,2E1,1.94E2,1.28E2,3E0,7E0,2E0,2.9E1,4.9E1,2E1,2.8E2,1.35E2,1.97E2,5.2E1,1.1E1,6E0,8E0,5E0,1.6E1,4E0,2.2E1,1.72E2,1.25E2,3E0,1E0,6E0,1E0,1E0,1E0,2.8E1,2E0,4.7E1,8E0,1.2E1,1.17E2,1.63E2,3.9E1,9.6E1,1.7E2,2.7E1,4.9E1,3E0,4E0,4E0,4E0,1E0,1.2E1,4E0,3E0,1E0,2.1E1,1E0,1.54E2,1.8E1,1.19E2,6E0],"tree_param":{"num_deleted":"0","num_feature":"8","num_nodes":"79","size_leaf_vector":"1"}},{"base_weights":[-2.3408812E-2,1.9620672E-1,-4.6483797E-1,-1.4044166E0,2.3147355E-1,-1.6455846E0,-3.094802E-1,-1.9464763E0,-2.9323576E-2,-3.542241E-1,3.1994802E-1,-1.8792288E0,-4.887662E-2,-3.5426682E-1,1.907559E-1,-2.9323576E-2,-2.269216E0,-1.7138034E-2,-5.864715E-1,1.7449535E-1,5.6128323E-1,-1.601917E-1,-1.6681215E0,-3.9854524E-1,1.7884678E-1,7.7753067E-3,5.9651554E-1,-1.5963821E-1,-1.5237901E0,-5.864715E-1,-1.7138034E-2,-5.864715E-1,-1.7138034E-2,-1.7138034E-2,2.5305235E-1,6.868873E-1,8.145496E-2,-1.9190036E0,-1.1152346E0,-4.830421E-1,-1.4650041E-1,-1.0984923E-1,1.1883382E0,-2.623558E-2,6.063523E-2,-1.5856743E-2,7.737443E-1,-2.9323576E-2,-8.1899464E-2,-1.5090239E-2,-2.9323576E-2,-1.5090239E-2,-8.569017E-4,-1.5090239E-2,-2.9323576E-2,-1.5090239E-2,-8.569017E-4,-8.569017E-4,5.897858E-3,2.2771673E-2,5.897858E-3,3.924873E-2,3.1661545E-3,-4.1134834E-5,5.4478098E-2,-6.1268914E-2,-1.2179889E-1,-8.580283E-2,-4.887662E-2,-3.587449E-2,-1.7542966E-2,-5.4924614E-3,-3.6063474E-2,2.6962224E-2,-5.4924614E-3,8.2243316E-2,4.0576596E-2,1.30137745E-2,-8.251629E-3,8.434797E-3,-9.624052E-3,5.400542E-2,1.3697207E-2],"categories":[],"categories_nodes":[],"categories_segments":[],"categories_sizes":[],"default_left":[0,0,0,0,0,0,0,0,0,0,0,0,0,0,0,0,0,0,0,0,0,0,0,0,0,0,0,0,0,0,0,0,0,0,0,0,0,0,0,0,0,0,0,0,0,0,0,0,0,0,0,0,0,0,0,0,0,0,0,0,0,0,0,0,0,0,0,0,0,0,0,0,0,0,0,0,0,0,0,0,0,0,0],"id":10,"left_children":[1,3,5,7,9,11,13,15,-1,17,19,21,-1,23,25,-1,27,29,31,33,35,-1,37,39,41,43,45,-1,47,49,51,53,55,57,59,61,63,65,67,69,71,73,75,-1,77,79,81,-1,-1,-1,-1,-1,-1,-1,-1,-1,-1,-1,-1,-1,-1,-1,-1,-1,-1,-1,-1,-1,-1,-1,-1,-1,-1,-1,-1,-1,-1,-1,-1,-1,-1,-1,-1],"loss_changes":[1.1351649E2,4.4468132E1,7.084819E1,1.4177055E1,3.9806892E1,9.044273E0,7.7969284E0,4.909397E0,0E0,1.2054852E1,2.3280556E1,5.0020905E0,0E0,7.554199E0,2.1485004E0,0E0,2.7076912E0,1.1824163E0,1.6015228E1,8.338986E0,1.5011147E1,0E0,2.5759888E0,6.1692505E0,1.6442495E1,6.229076E-1,9.8903847E-1,0E0,3.6734962E-1,7.199186E-1,5.077629E-1,2.9417152E0,2.8413017E0,2.426714E0,8.878588E0,1.2060707E1,4.3969646E0,7.238411E0,1.5250187E0,6.535057E0,6.616211E0,1.7040756E0,5.5738735E-1,0E0,9.440016E-1,1.3026021E-1,7.7595663E-1,0E0,0E0,0E0,0E0,0E0,0E0,0E0,0E0,0E0,0E0,0E0,0E0,0E0,0E0,0E0,0E0,0E0,0E0,0E0,0E0,0E0,0E0,0E0,0E0,0E0,0E0,0E0,0E0,0E0,0E0,0E0,0E0,0E0,0E0,0E0,0E0],"parents":[2147483647,0,0,1,1,2,2,3,3,4,4,5,5,6,6,7,7,9,9,10,10,11,11,13,13,14,14,16,16,17,17,18,18,19,19,20,20,22,22,23,23,24,24,25,25,26,26,28,28,29,29,30,30,31,31,32,32,33,33,34,34,35,35,36,36,37,37,38,38,39,39,40,40,41,41,42,42,44,44,45,45,46,46],"right_children":[2,4,6,8,10,12,14,16,-1,18,20,22,-1,24,26,-1,28,30,32,34,36,-1,38,40,42,44,46,-1,48,50,52,54,56,58,60,62,64,66,68,70,72,74,76,-1,78,80,82,-1,-1,-1,-1,-1,-1,-1,-1,-1,-1,-1,-1,-1,-1,-1,-1,-1,-1,-1,-1,-1,-1,-1,-1,-1,-1,-1,-1,-1,-1,-1,-1,-1,-1,-1,-1],"split_conditions":[4E0,5E-2,3.8E0,1.2999E4,3.9E0,3.08E3,5E0,5.35E2,-2.9323576E-2,2E0,2.199E3,2.8E0,-4.887662E-2,4.8666668E-1,5.5E2,-2.9323576E-2,-2.6262626E-2,6.7E1,7.5E1,3.93E2,2.799E4,-1.601917E-1,1.6E3,4.999E3,5.09E2,9.9E1,6E0,-1.5963821E-1,3.14E2,1.15E2,1E0,4.4E2,4.295E3,1E3,8.25E2,1.6667901E0,3.8348484E-1,4.49E2,3.6E0,4.1E0,1.599E4,3.15E2,6.8047756E-1,-2.623558E-2,1.59E2,2.53E2,1.2562578E0,-2.9323576E-2,-8.1899464E-2,-1.5090239E-2,-2.9323576E-2,-1.5090239E-2,-8.569017E-4,-1.5090239E-2,-2.9323576E-2,-1.5090239E-2,-8.569017E-4,-8.569017E-4,5.897858E-3,2.2771673E-2,5.897858E-3,3.924873E-2,3.1661545E-3,-4.1134834E-5,5.4478098E-2,-6.1268914E-2,-1.2179889E-1,-8.580283E-2,-4.887662E-2,-3.587449E-2,-1.7542966E-2,-5.4924614E-3,-3.6063474E-2,2.6962224E-2,-5.4924614E-3,8.2243316E-2,4.0576596E-2,1.30137745E-2,-8.251629E-3,8.434797E-3,-9.624052E-3,5.400542E-2,1.3697207E-2],"split_indices":[7,6,3,1,3,1,7,1,0,7,1,3,0,6,1,0,6,4,2,4,1,0,1,1,4,1,7,0,0,0,7,1,1,1,1,5,6,0,3,3,1,1,5,0,0,0,5,0,0,0,0,0,0,0,0,0,0,0,0,0,0,0,0,0,0,0,0,0,0,0,0,0,0,0,0,0,0,0,0,0,0,0,0],"split_type":[0,0,0,0,0,0,0,0,0,0,0,0,0,0,0,0,0,0,0,0,0,0,0,0,0,0,0,0,0,0,0,0,0,0,0,0,0,0,0,0,0,0,0,0,0,0,0,0,0,0,0,0,0,0,0,0,0,0,0,0,0,0,0,0,0,0,0,0,0,0,0,0,0,0,0,0,0,0,0,0,0,0,0],"sum_hessian":[1.169E3,7.81E2,3.88E2,1.6E1,7.65E2,4.4E1,3.44E2,1.3E1,3E0,1E2,6.65E2,3.6E1,8E0,3.16E2,2.8E1,3E0,1E1,3.1E1,6.9E1,4.16E2,2.49E2,3E0,3.3E1,2.92E2,2.4E1,2E1,8E0,3E0,7E0,2E0,2.9E1,4.9E1,2E1,9.3E1,3.23E2,1.97E2,5.2E1,2.1E1,1.2E1,2.18E2,7.4E1,1.4E1,1E1,1E0,1.9E1,2E0,6E0,1E0,6E0,1E0,1E0,1E0,2.8E1,2E0,4.7E1,8E0,1.2E1,5.4E1,3.9E1,1.29E2,1.94E2,1.7E2,2.7E1,4.9E1,3E0,1.2E1,9E0,4E0,8E0,7.7E1,1.41E2,5.7E1,1.7E1,3E0,1.1E1,3E0,7E0,1E1,9E0,1E0,1E0,3E0,3E0],"tree_param":{"num_deleted":"0","num_feature":"8","num_nodes":"83","size_leaf_vector":"1"}},{"base_weights":[-2.3040975E-2,1.8588784E-1,-4.4137523E-1,-1.3352649E0,2.1944824E-1,-1.7418097E0,-3.1228372E-1,-1.8687901E0,-2.7895419E-2,-3.3815572E-1,3.0380696E-1,-2.1382606E0,-1.137383E0,1.5451062E-1,-3.6045313E-1,-2.7895419E-2,-2.1783402E0,-1.7174378E-2,-5.5790836E-1,1.649759E-1,5.3360665E-1,-1.419093E-1,-8.189109E-2,-5.1352333E-2,-8.189109E-2,-1.02971256E-1,4.554817E-1,-5.012003E-1,-1.4490157E-1,-1.5365176E-1,-1.4587E0,-5.5790836E-1,-1.7174378E-2,-5.5790836E-1,-1.7174378E-2,6.5266795E-2,3.6977947E-1,6.527574E-1,7.840923E-2,-1.02971256E-1,1.7625523E-1,1.7625523E-1,1.393965E0,-1.0270467E0,-3.471334E-1,-1.02971256E-1,-5.1352333E-2,-2.7895419E-2,-7.838949E-2,-1.4377068E-2,-2.7895419E-2,-1.4377068E-2,-8.5871894E-4,-1.4377068E-2,-2.7895419E-2,-1.4377068E-2,-8.5871894E-4,-8.5871894E-4,1.709682E-2,-8.5871894E-4,3.1633794E-2,3.729778E-2,3.0134986E-3,-3.9125443E-5,5.2435186E-2,-5.148563E-3,8.812762E-3,8.812762E-3,-5.148563E-3,8.812762E-3,2.2233738E-2,8.065333E-2,3.9255507E-2,-3.4354504E-2,-5.1352333E-2,-1.2603605E-2,-3.4354504E-2,-5.148563E-3,-2.825045E-2],"categories":[],"categories_nodes":[],"categories_segments":[],"categories_sizes":[],"default_left":[0,0,0,0,0,0,0,0,0,0,0,0,0,0,0,0,0,0,0,0,0,0,0,0,0,0,0,0,0,0,0,0,0,0,0,0,0,0,0,0,0,0,0,0,0,0,0,0,0,0,0,0,0,0,0,0,0,0,0,0,0,0,0,0,0,0,0,0,0,0,0,0,0,0,0,0,0,0,0],"id":11,"left_children":[1,3,5,7,9,11,13,15,-1,17,19,21,23,25,27,-1,29,31,33,35,37,-1,-1,-1,-1,39,41,43,45,-1,47,49,51,53,55,57,59,61,63,65,67,69,71,73,75,77,-1,-1,-1,-1,-1,-1,-1,-1,-1,-1,-1,-1,-1,-1,-1,-1,-1,-1,-1,-1,-1,-1,-1,-1,-1,-1,-1,-1,-1,-1,-1,-1,-1],"loss_changes":[1.02342476E2,4.016346E1,6.492734E1,1.3473677E1,3.6087387E1,5.954872E0,8.060425E0,4.5147743E0,0E0,1.1358156E1,2.1127686E1,3.8357468E0,1.9200535E0,4.2845654E0,9.726646E0,0E0,2.5998E0,1.121248E0,1.5043888E1,8.470908E0,1.3508095E1,0E0,0E0,0E0,0E0,5.866347E-1,5.7457027E0,2.499966E1,1.0027383E1,0E0,3.3635712E-1,6.841657E-1,4.8177364E-1,2.7909355E0,2.6678987E0,1.9239407E1,2.0599604E1,1.0888359E1,4.0733037E0,6.7043996E-1,5.0067556E-1,2.5713027E-1,2.7213E-1,8.97007E-1,8.866503E0,2.4905574E0,0E0,0E0,0E0,0E0,0E0,0E0,0E0,0E0,0E0,0E0,0E0,0E0,0E0,0E0,0E0,0E0,0E0,0E0,0E0,0E0,0E0,0E0,0E0,0E0,0E0,0E0,0E0,0E0,0E0,0E0,0E0,0E0,0E0],"parents":[2147483647,0,0,1,1,2,2,3,3,4,4,5,5,6,6,7,7,9,9,10,10,11,11,12,12,13,13,14,14,16,16,17,17,18,18,19,19,20,20,25,25,26,26,27,27,28,28,30,30,31,31,32,32,33,33,34,34,35,35,36,36,37,37,38,38,39,39,40,40,41,41,42,42,43,43,44,44,45,45],"right_children":[2,4,6,8,10,12,14,16,-1,18,20,22,24,26,28,-1,30,32,34,36,38,-1,-1,-1,-1,40,42,44,46,-1,48,50,52,54,56,58,60,62,64,66,68,70,72,74,76,78,-1,-1,-1,-1,-1,-1,-1,-1,-1,-1,-1,-1,-1,-1,-1,-1,-1,-1,-1,-1,-1,-1,-1,-1,-1,-1,-1,-1,-1,-1,-1,-1,-1],"split_conditions":[3E0,5E-2,3.7E0,1.2999E4,3.9E0,7.21E2,2.05E2,5.35E2,-2.7895419E-2,2E0,2.199E3,3.5E0,3.7504598E-1,2.2220697E-1,3.08E3,-2.7895419E-2,-2.6262626E-2,6.7E1,7.5E1,2E0,2.799E4,-1.419093E-1,-8.189109E-2,-5.1352333E-2,-8.189109E-2,3.15E2,5.04E2,3.9E0,2.9858623E0,-1.5365176E-1,3.14E2,1.15E2,1E0,4.4E2,4.295E3,4.2E0,6.4E2,1.6667901E0,3.8348484E-1,1.375E-1,5.35E2,5.8E-1,4.99E2,6.5E2,2.4E3,2.4999E4,-5.1352333E-2,-2.7895419E-2,-7.838949E-2,-1.4377068E-2,-2.7895419E-2,-1.4377068E-2,-8.5871894E-4,-1.4377068E-2,-2.7895419E-2,-1.4377068E-2,-8.5871894E-4,-8.5871894E-4,1.709682E-2,-8.5871894E-4,3.1633794E-2,3.729778E-2,3.0134986E-3,-3.9125443E-5,5.2435186E-2,-5.148563E-3,8.812762E-3,8.812762E-3,-5.148563E-3,8.812762E-3,2.2233738E-2,8.065333E-2,3.9255507E-2,-3.4354504E-2,-5.1352333E-2,-1.2603605E-2,-3.4354504E-2,-5.148563E-3,-2.825045E-2],"split_indices":[7,6,3,1,3,4,0,1,0,7,1,3,5,6,1,0,6,4,2,7,1,0,0,0,0,1,4,3,5,0,0,0,7,1,1,3,1,5,6,6,1,6,1,1,1,1,0,0,0,0,0,0,0,0,0,0,0,0,0,0,0,0,0,0,0,0,0,0,0,0,0,0,0,0,0,0,0,0,0],"split_type":[0,0,0,0,0,0,0,0,0,0,0,0,0,0,0,0,0,0,0,0,0,0,0,0,0,0,0,0,0,0,0,0,0,0,0,0,0,0,0,0,0,0,0,0,0,0,0,0,0,0,0,0,0,0,0,0,0,0,0,0,0,0,0,0,0,0,0,0,0,0,0,0,0,0,0,0,0,0,0],"sum_hessian":[1.169E3,7.8E2,3.89E2,1.6E1,7.64E2,3.4E1,3.55E2,1.3E1,3E0,1E2,6.64E2,1.9E1,1.5E1,3.3E1,3.22E2,3E0,1E1,3.1E1,6.9E1,4.15E2,2.49E2,7E0,1.2E1,9E0,6E0,1.3E1,2E1,1.94E2,1.28E2,3E0,7E0,2E0,2.9E1,4.9E1,2E1,2.8E2,1.35E2,1.97E2,5.2E1,8E0,5E0,1.6E1,4E0,2.2E1,1.72E2,1.25E2,3E0,1E0,6E0,1E0,1E0,1E0,2.8E1,2E0,4.7E1,8E0,1.2E1,1.17E2,1.63E2,3.9E1,9.6E1,1.7E2,2.7E1,4.9E1,3E0,4E0,4E0,4E0,1E0,1.3E1,3E0,3E0,1E0,2E0,2E1,1.54E2,1.8E1,1.19E2,6E0],"tree_param":{"num_deleted":"0","num_feature":"8","num_nodes":"79","size_leaf_vector":"1"}},{"base_weights":[-2.5246931E-2,-8.927541E-1,6.6524595E-2,-2.0655736E-2,-1.2544065E0,2.355129E-1,-2.8238916E-1,-1.4209509E0,-4.1311473E-1,-5.390892E-3,3.92782E-1,-3.2411784E-1,1.8492478E-1,-1.421463E-1,-1.3087032E0,-2.0655736E-2,-4.5851644E-2,-4.1311473E-1,2.4043094E-1,4.497321E-1,-4.1311473E-1,-3.646954E-1,1.6603908E-1,5.160922E-3,5.838266E-1,-1.5563096E0,-1.0201411E0,-4.1311473E-1,-8.6341895E-2,4.7125083E-1,-8.6341895E-2,4.8329884E-1,1.8308684E-2,9.154342E-4,-4.1311473E-1,-4.1311473E-1,-1.2599152E-1,-9.932816E-2,1.1488338E0,-2.0655736E-2,5.7018995E-2,-7.0578256E-3,7.5365895E-1,-5.675148E-2,-1.0379074E-1,-4.5851644E-2,-9.234839E-2,-1.2486416E-2,-2.0655736E-2,-4.317095E-3,-1.2486416E-2,2.693695E-4,4.771344E-2,-4.317095E-3,5.8067467E-2,9.154342E-4,2.5839334E-2,9.154342E-4,2.163382E-2,-2.0655736E-2,9.154342E-4,-4.966408E-3,-2.0655736E-2,-4.966408E-3,-2.0655736E-2,2.6017666E-2,-4.966408E-3,7.963184E-2,3.91664E-2,1.1963103E-2,-7.4575143E-3,8.539009E-3,-9.068347E-3,1.7436048E-2,5.8866806E-2],"categories":[],"categories_nodes":[],"categories_segments":[],"categories_sizes":[],"default_left":[0,0,0,0,0,0,0,0,0,0,0,0,0,0,0,0,0,0,0,0,0,0,0,0,0,0,0,0,0,0,0,0,0,0,0,0,0,0,0,0,0,0,0,0,0,0,0,0,0,0,0,0,0,0,0,0,0,0,0,0,0,0,0,0,0,0,0,0,0,0,0,0,0,0,0],"id":12,"left_children":[1,3,5,-1,7,9,11,13,15,17,19,21,23,-1,25,-1,-1,27,29,31,33,35,37,39,41,43,45,47,49,51,53,55,57,-1,59,61,63,65,67,-1,69,71,73,-1,-1,-1,-1,-1,-1,-1,-1,-1,-1,-1,-1,-1,-1,-1,-1,-1,-1,-1,-1,-1,-1,-1,-1,-1,-1,-1,-1,-1,-1,-1,-1],"loss_changes":[9.320598E1,3.6347206E1,6.2507633E1,0E0,1.8804138E1,2.7053234E1,6.80707E0,9.048508E0,6.184182E-1,3.0092844E1,2.52499E1,6.38538E0,2.0765228E0,0E0,3.842514E0,0E0,0E0,7.140501E0,1.4865343E1,9.123283E0,3.3435783E0,5.3230476E0,1.5366627E1,5.7580566E-1,9.084811E-1,9.947601E0,5.673294E0,1.0232277E0,3.889354E0,2.4747095E1,2.8013742E1,8.552246E0,1.0298685E0,0E0,2.7839031E0,3.790619E0,4.7739058E0,1.5261545E0,5.3678226E-1,0E0,7.871444E-1,1.23970225E-1,7.903781E-1,0E0,0E0,0E0,0E0,0E0,0E0,0E0,0E0,0E0,0E0,0E0,0E0,0E0,0E0,0E0,0E0,0E0,0E0,0E0,0E0,0E0,0E0,0E0,0E0,0E0,0E0,0E0,0E0,0E0,0E0,0E0,0E0],"parents":[2147483647,0,0,1,1,2,2,4,4,5,5,6,6,7,7,8,8,9,9,10,10,11,11,12,12,14,14,17,17,18,18,19,19,20,20,21,21,22,22,23,23,24,24,25,25,26,26,27,27,28,28,29,29,30,30,31,31,32,32,34,34,35,35,36,36,37,37,38,38,40,40,41,41,42,42],"right_children":[2,4,6,-1,8,10,12,14,16,18,20,22,24,-1,26,-1,-1,28,30,32,34,36,38,40,42,44,46,48,50,52,54,56,58,-1,60,62,64,66,68,-1,70,72,74,-1,-1,-1,-1,-1,-1,-1,-1,-1,-1,-1,-1,-1,-1,-1,-1,-1,-1,-1,-1,-1,-1,-1,-1,-1,-1,-1,-1,-1,-1,-1,-1],"split_conditions":[3.8E0,2E0,3E0,-2.0655736E-2,7.8E1,1.075E3,5E0,2.9E0,3E0,5.19E2,2.6802433E0,4.8666668E-1,5.5E2,-1.421463E-1,1.6E3,-2.0655736E-2,-4.5851644E-2,4.3E0,8.99E2,4.999E4,1.545E3,4.999E3,5.09E2,9.9E1,6E0,4.49E2,1.6408839E0,3.29967E-1,7.5E2,4.2E0,2E0,1.85E2,6.9999E4,9.154342E-4,8.51E2,2.05E2,1.4999E4,3.15E2,6.8047756E-1,-2.0655736E-2,1.59E2,2.53E2,5.56E2,-5.675148E-2,-1.0379074E-1,-4.5851644E-2,-9.234839E-2,-1.2486416E-2,-2.0655736E-2,-4.317095E-3,-1.2486416E-2,2.693695E-4,4.771344E-2,-4.317095E-3,5.8067467E-2,9.154342E-4,2.5839334E-2,9.154342E-4,2.163382E-2,-2.0655736E-2,9.154342E-4,-4.966408E-3,-2.0655736E-2,-4.966408E-3,-2.0655736E-2,2.6017666E-2,-4.966408E-3,7.963184E-2,3.91664E-2,1.1963103E-2,-7.4575143E-3,8.539009E-3,-9.068347E-3,1.7436048E-2,5.8866806E-2],"split_indices":[3,7,7,0,2,1,7,3,7,4,5,6,1,0,1,0,0,3,1,1,1,1,4,1,7,0,5,5,1,3,7,4,1,0,4,0,1,1,5,0,0,0,4,0,0,0,0,0,0,0,0,0,0,0,0,0,0,0,0,0,0,0,0,0,0,0,0,0,0,0,0,0,0,0,0],"split_type":[0,0,0,0,0,0,0,0,0,0,0,0,0,0,0,0,0,0,0,0,0,0,0,0,0,0,0,0,0,0,0,0,0,0,0,0,0,0,0,0,0,0,0,0,0,0,0,0,0,0,0,0,0,0,0,0,0,0,0,0,0,0,0,0,0,0,0,0,0,0,0,0,0,0,0],"sum_hessian":[1.169E3,1.11E2,1.058E3,2.4E1,8.7E1,7.13E2,3.45E2,7.9E1,8E0,2.82E2,4.31E2,3.17E2,2.8E1,4E0,7.5E1,7E0,1E0,1.02E2,1.8E2,4.1E2,2.1E1,2.93E2,2.4E1,2E1,8E0,3.8E1,3.7E1,5.5E1,4.7E1,1.09E2,7.1E1,3.95E2,1.5E1,2E0,1.9E1,2.19E2,7.4E1,1.4E1,1E1,1E0,1.9E1,2E0,6E0,2.7E1,1.1E1,3E1,7E0,5E0,5E1,3.6E1,1.1E1,5.6E1,5.3E1,5.4E1,1.7E1,1.7E1,3.78E2,1E1,5E0,1.3E1,6E0,1.5E1,2.04E2,5.5E1,1.9E1,3E0,1.1E1,3E0,7E0,1E1,9E0,1E0,1E0,4E0,2E0],"tree_param":{"num_deleted":"0","num_feature":"8","num_nodes":"75","size_leaf_vector":"1"}},{"base_weights":[-2.644325E-2,1.6220443E-1,-4.0561047E-1,-1.2545155E0,1.9343425E-1,-1.5881703E0,-2.878775E-1,-1.7711776E0,-2.6527032E-2,-3.021104E-1,2.6829398E-1,-1.9743085E0,-1.0062369E0,1.3908258E-1,-3.320662E-1,-2.6527032E-2,-2.0691433E0,-1.6908213E-2,-5.3054065E-1,1.365052E-1,4.8152414E-1,-1.3156249E-1,-7.451364E-2,-4.6901196E-2,-7.451364E-2,-9.649181E-2,4.285875E-1,-4.680213E-1,-1.2503245E-1,-1.4721735E-1,-1.3728986E0,-5.3054065E-1,-1.6908213E-2,-5.3054065E-1,-1.6908213E-2,1.9444828E-1,-8.454107E-4,5.905143E-1,5.7042375E-2,-9.649181E-2,1.6604784E-1,1.6604784E-1,1.3372148E0,-9.380239E-1,-3.1883472E-1,-9.649181E-2,-4.6901196E-2,-2.6527032E-2,-7.334498E-2,-1.3686222E-2,-2.6527032E-2,-1.3686222E-2,-8.454107E-4,-2.6527032E-2,-1.3686222E-2,-1.3686222E-2,-8.454107E-4,5.748958E-3,4.156239E-2,3.4048405E-2,3.4796547E-3,-8.454107E-4,4.949988E-2,-4.824591E-3,8.302392E-3,8.302392E-3,-4.824591E-3,8.302392E-3,2.0775676E-2,7.781509E-2,3.7581567E-2,-3.1421464E-2,-4.6901196E-2,-1.1303726E-2,-3.1421464E-2,-4.824591E-3,-2.5862893E-2],"categories":[],"categories_nodes":[],"categories_segments":[],"categories_sizes":[],"default_left":[0,0,0,0,0,0,0,0,0,0,0,0,0,0,0,0,0,0,0,0,0,0,0,0,0,0,0,0,0,0,0,0,0,0,0,0,0,0,0,0,0,0,0,0,0,0,0,0,0,0,0,0,0,0,0,0,0,0,0,0,0,0,0,0,0,0,0,0,0,0,0,0,0,0,0,0,0],"id":13,"left_children":[1,3,5,7,9,11,13,15,-1,17,19,21,23,25,27,-1,29,31,33,35,37,-1,-1,-1,-1,39,41,43,45,-1,47,49,51,53,55,57,-1,59,61,63,65,67,69,71,73,75,-1,-1,-1,-1,-1,-1,-1,-1,-1,-1,-1,-1,-1,-1,-1,-1,-1,-1,-1,-1,-1,-1,-1,-1,-1,-1,-1,-1,-1,-1,-1],"loss_changes":[8.3754745E1,3.4841393E1,5.3701817E1,1.2356678E1,2.8496841E1,5.8781204E0,6.743906E0,4.210285E0,0E0,1.0300598E1,1.8649769E1,3.507904E0,1.7971878E0,3.893723E0,9.0049095E0,0E0,2.6606255E0,1.021764E0,1.4576195E1,7.254674E0,1.1717461E1,0E0,0E0,0E0,0E0,5.8253247E-1,5.3831205E0,2.2209026E1,9.1913805E0,0E0,1.7936802E-1,6.609036E-1,4.707429E-1,1.7656975E0,4.488431E0,1.9134663E1,0E0,9.470703E0,3.765311E0,6.189586E-1,4.6512324E-1,2.2136056E-1,3.104887E-1,8.2858276E-1,8.050047E0,2.1812239E0,0E0,0E0,0E0,0E0,0E0,0E0,0E0,0E0,0E0,0E0,0E0,0E0,0E0,0E0,0E0,0E0,0E0,0E0,0E0,0E0,0E0,0E0,0E0,0E0,0E0,0E0,0E0,0E0,0E0,0E0,0E0],"parents":[2147483647,0,0,1,1,2,2,3,3,4,4,5,5,6,6,7,7,9,9,10,10,11,11,12,12,13,13,14,14,16,16,17,17,18,18,19,19,20,20,25,25,26,26,27,27,28,28,30,30,31,31,32,32,33,33,34,34,35,35,37,37,38,38,39,39,40,40,41,41,42,42,43,43,44,44,45,45],"right_children":[2,4,6,8,10,12,14,16,-1,18,20,22,24,26,28,-1,30,32,34,36,38,-1,-1,-1,-1,40,42,44,46,-1,48,50,52,54,56,58,-1,60,62,64,66,68,70,72,74,76,-1,-1,-1,-1,-1,-1,-1,-1,-1,-1,-1,-1,-1,-1,-1,-1,-1,-1,-1,-1,-1,-1,-1,-1,-1,-1,-1,-1,-1,-1,-1],"split_conditions":[4E0,5E-2,3.7E0,1.2999E4,3.9E0,7.21E2,2.05E2,5.35E2,-2.6527032E-2,2E0,2E3,3.5E0,3.7504598E-1,2.2220697E-1,3.08E3,-2.6527032E-2,-2.6262626E-2,6.7E1,8.26E2,1.92E3,2.799E4,-1.3156249E-1,-7.451364E-2,-4.6901196E-2,-7.451364E-2,3.15E2,5.04E2,3.9E0,2.9858623E0,-1.4721735E-1,3.14E2,1.15E2,1E0,7.6E1,3.7E0,1.56E3,-8.454107E-4,1.6667901E0,3.8348484E-1,1.375E-1,5.35E2,5.8E-1,4.99E2,6.5E2,2.4E3,2.4999E4,-4.6901196E-2,-2.6527032E-2,-7.334498E-2,-1.3686222E-2,-2.6527032E-2,-1.3686222E-2,-8.454107E-4,-2.6527032E-2,-1.3686222E-2,-1.3686222E-2,-8.454107E-4,5.748958E-3,4.156239E-2,3.4048405E-2,3.4796547E-3,-8.454107E-4,4.949988E-2,-4.824591E-3,8.302392E-3,8.302392E-3,-4.824591E-3,8.302392E-3,2.0775676E-2,7.781509E-2,3.7581567E-2,-3.1421464E-2,-4.6901196E-2,-1.1303726E-2,-3.1421464E-2,-4.824591E-3,-2.5862893E-2],"split_indices":[7,6,3,1,3,4,0,1,0,7,1,3,5,6,1,0,6,4,4,1,1,0,0,0,0,1,4,3,5,0,0,0,7,2,3,1,0,5,6,6,1,6,1,1,1,1,0,0,0,0,0,0,0,0,0,0,0,0,0,0,0,0,0,0,0,0,0,0,0,0,0,0,0,0,0,0,0],"split_type":[0,0,0,0,0,0,0,0,0,0,0,0,0,0,0,0,0,0,0,0,0,0,0,0,0,0,0,0,0,0,0,0,0,0,0,0,0,0,0,0,0,0,0,0,0,0,0,0,0,0,0,0,0,0,0,0,0,0,0,0,0,0,0,0,0,0,0,0,0,0,0,0,0,0,0,0,0],"sum_hessian":[1.169E3,7.81E2,3.88E2,1.6E1,7.65E2,3.4E1,3.54E2,1.3E1,3E0,1E2,6.65E2,1.9E1,1.5E1,3.3E1,3.21E2,3E0,1E1,3.1E1,6.9E1,4.12E2,2.53E2,7E0,1.2E1,9E0,6E0,1.3E1,2E1,1.93E2,1.28E2,3E0,7E0,2E0,2.9E1,3.8E1,3.1E1,3.79E2,3.3E1,2.01E2,5.2E1,8E0,5E0,1.6E1,4E0,2.2E1,1.71E2,1.25E2,3E0,1E0,6E0,1E0,1E0,1E0,2.8E1,3.2E1,6E0,9E0,2.2E1,3.38E2,4.1E1,1.71E2,3E1,4.9E1,3E0,4E0,4E0,4E0,1E0,1.3E1,3E0,3E0,1E0,2E0,2E1,1.53E2,1.8E1,1.19E2,6E0],"tree_param":{"num_deleted":"0","num_feature":"8","num_nodes":"77","size_leaf_vector":"1"}},{"base_weights":[-2.7356556E-2,1.5307009E-1,-3.8860232E-1,-1.1917266E0,1.8275437E-1,-1.3653814E0,-2.6044145E-1,-1.7006183E0,-2.5224304E-2,-2.9072124E-1,2.5439087E-1,-1.3261506E-1,-1.1751379E0,-2.9970568E-1,1.7909175E-1,-5.044861E-1,-1.9865751E0,-1.8165186E-2,-5.044861E-1,1.283896E-1,4.5776936E-1,-1.6159694E0,-8.129114E-1,-3.7615347E-1,-6.366544E-2,2.3345947E-3,5.71626E-1,-2.5224304E-2,-4.4523347E-2,-1.416967E-1,-1.3145738E0,-5.044861E-1,-1.8165186E-2,-5.044861E-1,-1.8165186E-2,3.5711706E-2,3.1620863E-1,5.186766E-1,-1.8165186E-2,-9.7265327E-1,-9.5685974E-2,-1.2643563E0,-4.064557E-2,-1.6087537E-1,-5.5404997E-1,1.0272813E0,-2.0105778E-1,-2.5491191E-2,5.3433705E-2,6.5453845E-4,7.3466724E-1,-2.5224304E-2,-7.020162E-2,-1.3066282E-2,-2.5224304E-2,-1.3066282E-2,-9.082593E-4,-2.5224304E-2,-1.3066282E-2,-1.3066282E-2,-9.082593E-4,-9.082593E-4,1.509683E-2,-9.082593E-4,2.8186113E-2,-9.082593E-4,2.7453614E-2,-9.082593E-4,1.997794E-2,-5.943791E-2,-4.064557E-2,-9.071733E-2,-5.193169E-2,-2.0090455E-2,1.7276933E-2,-2.8811216E-2,5.8215357E-2,-1.530453E-2,6.1610706E-2,-2.0553512E-3,-3.0343844E-2,1.0988219E-2,-6.7436695E-3,8.608127E-3,-8.559036E-3,5.2116454E-2,1.2166929E-2],"categories":[],"categories_nodes":[],"categories_segments":[],"categories_sizes":[],"default_left":[0,0,0,0,0,0,0,0,0,0,0,0,0,0,0,0,0,0,0,0,0,0,0,0,0,0,0,0,0,0,0,0,0,0,0,0,0,0,0,0,0,0,0,0,0,0,0,0,0,0,0,0,0,0,0,0,0,0,0,0,0,0,0,0,0,0,0,0,0,0,0,0,0,0,0,0,0,0,0,0,0,0,0,0,0,0,0],"id":14,"left_children":[1,3,5,7,9,11,13,15,-1,17,19,-1,21,23,25,27,29,31,33,35,37,39,41,43,45,47,49,-1,-1,-1,51,53,55,57,59,61,63,65,67,69,-1,71,-1,73,75,77,79,-1,81,83,85,-1,-1,-1,-1,-1,-1,-1,-1,-1,-1,-1,-1,-1,-1,-1,-1,-1,-1,-1,-1,-1,-1,-1,-1,-1,-1,-1,-1,-1,-1,-1,-1,-1,-1,-1,-1],"loss_changes":[7.631816E1,3.1394781E1,4.8466503E1,1.1746653E1,2.6021334E1,7.9004517E0,6.024914E0,3.8777046E0,0E0,9.829164E0,1.698248E1,0E0,8.147484E0,5.714283E0,2.0107794E0,4.3456316E-2,2.5382805E0,9.6444005E-1,1.3565109E1,7.1602554E0,1.0768387E1,5.9001427E0,5.619879E-1,9.102203E0,1.2047671E1,5.768294E-1,8.373463E-1,0E0,0E0,0E0,1.5984058E-1,6.257167E-1,4.444153E-1,1.6582947E0,4.216897E0,1.5692505E1,1.7637598E1,6.9879303E0,1.2211233E0,2.787943E-1,0E0,1.0224571E0,0E0,1.35601845E1,5.662449E0,2.8364344E0,4.5837393E0,0E0,6.560652E-1,1.1788427E-1,8.0450225E-1,0E0,0E0,0E0,0E0,0E0,0E0,0E0,0E0,0E0,0E0,0E0,0E0,0E0,0E0,0E0,0E0,0E0,0E0,0E0,0E0,0E0,0E0,0E0,0E0,0E0,0E0,0E0,0E0,0E0,0E0,0E0,0E0,0E0,0E0,0E0,0E0],"parents":[2147483647,0,0,1,1,2,2,3,3,4,4,5,5,6,6,7,7,9,9,10,10,12,12,13,13,14,14,15,15,16,16,17,17,18,18,19,19,20,20,21,21,22,22,23,23,24,24,25,25,26,26,30,30,31,31,32,32,33,33,34,34,35,35,36,36,37,37,38,38,39,39,41,41,43,43,44,44,45,45,46,46,48,48,49,49,50,50],"right_children":[2,4,6,8,10,12,14,16,-1,18,20,-1,22,24,26,28,30,32,34,36,38,40,42,44,46,48,50,-1,-1,-1,52,54,56,58,60,62,64,66,68,70,-1,72,-1,74,76,78,80,-1,82,84,86,-1,-1,-1,-1,-1,-1,-1,-1,-1,-1,-1,-1,-1,-1,-1,-1,-1,-1,-1,-1,-1,-1,-1,-1,-1,-1,-1,-1,-1,-1,-1,-1,-1,-1,-1,-1],"split_conditions":[3E0,5E-2,3.8E0,1.2999E4,3.9E0,2.9E0,5E0,5.35E2,-2.5224304E-2,2E0,2E3,-1.3261506E-1,1.6E3,4.999E3,5.5E2,4.481833E-1,-2.6262626E-2,6.7E1,8.26E2,2E0,4.999E4,4.49E2,3.6E0,1.499E3,5.5E3,9.9E1,6E0,-2.5224304E-2,-4.4523347E-2,-1.416967E-1,3.14E2,1.15E2,1E0,7.6E1,3.7E0,4.2E0,6.4E2,1.09E2,6.9999E4,7.21E2,-9.5685974E-2,5.37E2,-4.064557E-2,1E3,4.8E0,3.9E0,1.4999E4,-2.5491191E-2,1.59E2,2.53E2,1.2562578E0,-2.5224304E-2,-7.020162E-2,-1.3066282E-2,-2.5224304E-2,-1.3066282E-2,-9.082593E-4,-2.5224304E-2,-1.3066282E-2,-1.3066282E-2,-9.082593E-4,-9.082593E-4,1.509683E-2,-9.082593E-4,2.8186113E-2,-9.082593E-4,2.7453614E-2,-9.082593E-4,1.997794E-2,-5.943791E-2,-4.064557E-2,-9.071733E-2,-5.193169E-2,-2.0090455E-2,1.7276933E-2,-2.8811216E-2,5.8215357E-2,-1.530453E-2,6.1610706E-2,-2.0553512E-3,-3.0343844E-2,1.0988219E-2,-6.7436695E-3,8.608127E-3,-8.559036E-3,5.2116454E-2,1.2166929E-2],"split_indices":[7,6,3,1,3,3,7,1,0,7,1,0,1,1,1,5,6,4,4,7,1,0,3,1,1,1,7,0,0,0,0,0,7,2,3,3,1,4,1,4,0,4,0,1,3,3,1,0,0,0,5,0,0,0,0,0,0,0,0,0,0,0,0,0,0,0,0,0,0,0,0,0,0,0,0,0,0,0,0,0,0,0,0,0,0,0,0],"split_type":[0,0,0,0,0,0,0,0,0,0,0,0,0,0,0,0,0,0,0,0,0,0,0,0,0,0,0,0,0,0,0,0,0,0,0,0,0,0,0,0,0,0,0,0,0,0,0,0,0,0,0,0,0,0,0,0,0,0,0,0,0,0,0,0,0,0,0,0,0,0,0,0,0,0,0,0,0,0,0,0,0,0,0,0,0,0,0],"sum_hessian":[1.169E3,7.8E2,3.89E2,1.6E1,7.64E2,4.4E1,3.45E2,1.3E1,3E0,1E2,6.64E2,4E0,4E1,3.17E2,2.8E1,3E0,1E1,3.1E1,6.9E1,4.11E2,2.53E2,2.1E1,1.9E1,2.39E2,7.8E1,2E1,8E0,2E0,1E0,3E0,7E0,2E0,2.9E1,3.8E1,3.1E1,2.76E2,1.35E2,2.36E2,1.7E1,1.2E1,9E0,5E0,1.4E1,1.09E2,1.3E2,8E0,7E1,1E0,1.9E1,2E0,6E0,1E0,6E0,1E0,1E0,1E0,2.8E1,3.2E1,6E0,9E0,2.2E1,1.16E2,1.6E2,3.9E1,9.6E1,3E0,2.33E2,1.1E1,6E0,8E0,4E0,3E0,2E0,7.4E1,3.5E1,1.29E2,1E0,1E0,7E0,5.1E1,1.9E1,1E1,9E0,1E0,1E0,3E0,3E0],"tree_param":{"num_deleted":"0","num_feature":"8","num_nodes":"87","size_leaf_vector":"1"}},{"base_weights":[-2.887646E-2,-7.693337E-1,4.946168E-2,-1.7996801E-2,-1.1037215E0,1.9314206E-1,-2.4717778E-1,-1.2612807E0,-3.5993603E-1,-3.5993603E-1,2.3878354E-1,-2.8459302E-1,1.716228E-1,-1.2731045E-1,-1.16015E0,-1.7996801E-2,-4.0530417E-2,-3.5993603E-1,-6.0576245E-2,7.41362E-2,3.7918723E-1,-3.2156432E-1,1.6157345E-1,9.797863E-2,5.5841494E-2,-1.3900552E0,-8.9366466E-1,-1.05128065E-2,-3.5993603E-1,-1.05128065E-2,-6.0576245E-2,-6.0576245E-2,3.885012E-1,-6.0576245E-2,4.828679E-1,-3.5993603E-1,-1.0527347E-1,-7.999543E-2,1.1095322E0,-4.697202E-2,2.951605E-1,-5.025309E-2,-9.265898E-2,-4.0530417E-2,-8.5209064E-2,-1.4254804E-2,-1.7996801E-2,-3.0288124E-3,-6.770809E-3,-3.0288124E-3,8.198124E-3,5.934613E-2,8.198124E-3,-3.0288124E-3,7.130232E-2,3.5398502E-2,1.2877613E-2,-3.9997716E-3,-1.7996801E-2,-3.9997716E-3,-1.7987048E-2,2.5573194E-2,-3.9997716E-3,5.9870113E-2,2.5738422E-2,-1.7996801E-2,1.7937899E-3,2.6325464E-2,7.977161E-3],"categories":[],"categories_nodes":[],"categories_segments":[],"categories_sizes":[],"default_left":[0,0,0,0,0,0,0,0,0,0,0,0,0,0,0,0,0,0,0,0,0,0,0,0,0,0,0,0,0,0,0,0,0,0,0,0,0,0,0,0,0,0,0,0,0,0,0,0,0,0,0,0,0,0,0,0,0,0,0,0,0,0,0,0,0,0,0,0,0],"id":15,"left_children":[1,3,5,-1,7,9,11,13,15,17,19,21,23,-1,25,-1,-1,27,29,31,33,35,37,39,-1,41,43,-1,45,-1,47,49,51,53,55,57,59,61,63,65,67,-1,-1,-1,-1,-1,-1,-1,-1,-1,-1,-1,-1,-1,-1,-1,-1,-1,-1,-1,-1,-1,-1,-1,-1,-1,-1,-1,-1],"loss_changes":[6.790511E1,2.9781609E1,4.5183666E1,0E0,1.6181145E1,2.270818E1,5.4704914E0,7.441681E0,5.5794334E-1,2.5633392E0,1.552969E1,5.2974815E0,1.9092355E0,0E0,3.4139862E0,0E0,0E0,5.5624485E-1,2.7930331E0,3.1056513E1,1.9280525E1,4.301544E0,1.4099448E1,8.1415015E-1,0E0,8.341339E0,5.4685555E0,0E0,5.5867195E-2,0E0,2.080766E-1,6.5120306E0,4.2073025E1,1.9886747E1,1.5185524E1,3.1256561E0,4.0933275E0,1.3928972E0,5.037203E-1,5.553611E-1,2.9249775E-1,0E0,0E0,0E0,0E0,0E0,0E0,0E0,0E0,0E0,0E0,0E0,0E0,0E0,0E0,0E0,0E0,0E0,0E0,0E0,0E0,0E0,0E0,0E0,0E0,0E0,0E0,0E0,0E0],"parents":[2147483647,0,0,1,1,2,2,4,4,5,5,6,6,7,7,8,8,9,9,10,10,11,11,12,12,14,14,17,17,18,18,19,19,20,20,21,21,22,22,23,23,25,25,26,26,28,28,30,30,31,31,32,32,33,33,34,34,35,35,36,36,37,37,38,38,39,39,40,40],"right_children":[2,4,6,-1,8,10,12,14,16,18,20,22,24,-1,26,-1,-1,28,30,32,34,36,38,40,-1,42,44,-1,46,-1,48,50,52,54,56,58,60,62,64,66,68,-1,-1,-1,-1,-1,-1,-1,-1,-1,-1,-1,-1,-1,-1,-1,-1,-1,-1,-1,-1,-1,-1,-1,-1,-1,-1,-1,-1],"split_conditions":[3.8E0,2E0,3E0,-1.7996801E-2,7.8E1,1.97E2,5E0,2.9E0,3E0,4.3E0,2E0,4.8666668E-1,1.299E3,-1.2731045E-1,1.6E3,-1.7996801E-2,-4.0530417E-2,3.840761E-1,1.3E1,4.2E0,9.31E2,4.999E3,5.09E2,3.97E2,5.5841494E-2,4.49E2,1.6408839E0,-1.05128065E-2,6.7E1,-1.05128065E-2,4.799E3,4.4333333E-1,8.25E2,3.703463E-1,9.5451444E-1,2.05E2,6.7E3,3.15E2,3.699E3,1.2E2,7.526039E-1,-5.025309E-2,-9.265898E-2,-4.0530417E-2,-8.5209064E-2,-1.4254804E-2,-1.7996801E-2,-3.0288124E-3,-6.770809E-3,-3.0288124E-3,8.198124E-3,5.934613E-2,8.198124E-3,-3.0288124E-3,7.130232E-2,3.5398502E-2,1.2877613E-2,-3.9997716E-3,-1.7996801E-2,-3.9997716E-3,-1.7987048E-2,2.5573194E-2,-3.9997716E-3,5.9870113E-2,2.5738422E-2,-1.7996801E-2,1.7937899E-3,2.6325464E-2,7.977161E-3],"split_indices":[3,7,7,0,2,4,7,3,7,3,7,6,1,0,1,0,0,5,2,3,1,1,4,4,0,0,5,0,0,0,0,6,1,6,5,0,1,1,0,1,5,0,0,0,0,0,0,0,0,0,0,0,0,0,0,0,0,0,0,0,0,0,0,0,0,0,0,0,0],"split_type":[0,0,0,0,0,0,0,0,0,0,0,0,0,0,0,0,0,0,0,0,0,0,0,0,0,0,0,0,0,0,0,0,0,0,0,0,0,0,0,0,0,0,0,0,0,0,0,0,0,0,0,0,0,0,0,0,0,0,0,0,0,0,0,0,0,0,0,0,0],"sum_hessian":[1.169E3,1.11E2,1.058E3,2.4E1,8.7E1,7.13E2,3.45E2,7.9E1,8E0,4.1E1,6.72E2,3.17E2,2.8E1,4E0,7.5E1,7E0,1E0,2E1,2.1E1,3.1E2,3.62E2,2.93E2,2.4E1,2.7E1,1E0,3.8E1,3.7E1,1E0,1.9E1,4E0,1.7E1,1.29E2,1.81E2,6E1,3.02E2,2.19E2,7.4E1,1.4E1,1E1,1.6E1,1.1E1,2.7E1,1.1E1,3E1,7E0,1E0,1.8E1,1.6E1,1E0,1.07E2,2.2E1,4.8E1,1.33E2,5.2E1,8E0,1.5E2,1.52E2,1.5E1,2.04E2,2.2E1,5.2E1,3E0,1.1E1,9E0,1E0,2E0,1.4E1,3E0,8E0],"tree_param":{"num_deleted":"0","num_feature":"8","num_nodes":"69","size_leaf_vector":"1"}},{"base_weights":[-3.0383738E-2,1.3001719E-1,-3.5275686E-1,-1.1216836E0,1.5762672E-1,-1.379562E0,-2.5052887E-1,-1.613386E0,-2.4101421E-2,1.9128796E-1,-4.8202842E-1,-1.7554812E0,-8.234403E-1,1.3617836E-1,-2.9058328E-1,-4.8202842E-1,-1.8893052E0,-1.7859254E-2,3.639939E-1,-7.2685117E-3,-4.8202842E-1,-1.1814653E-1,-6.447304E-2,-4.0752273E-2,-6.447304E-2,-7.720246E-2,3.9088777E-1,-4.2193756E-1,-9.079016E-2,-2.4101421E-2,-4.3334544E-2,-1.362695E-1,-1.2350998E0,4.0905568E-1,-1.1944025E-1,5.1835746E-1,1.4353897E-1,-4.8202842E-1,-1.4537023E-1,-7.720246E-2,7.842133E-3,1.8683894E-1,9.378863E-1,-8.150455E-1,-2.7976537E-1,-7.720246E-2,-4.0752273E-2,-2.4101421E-2,-6.541652E-2,1.6034862E-2,7.02609E-2,-7.2685117E-3,5.097283E-3,2.0371923E-2,5.0723325E-2,-7.2685117E-3,1.654741E-2,-2.4101421E-2,-1.5684968E-2,-1.5684968E-2,-7.2685117E-3,-3.8601232E-3,2.555287E-3,7.842133E-3,1.8445073E-2,7.58004E-2,2.8118132E-2,-2.7370272E-2,-4.0752273E-2,-9.570027E-3,-2.7370272E-2,-3.8601232E-3,-2.2306198E-2],"categories":[],"categories_nodes":[],"categories_segments":[],"categories_sizes":[],"default_left":[0,0,0,0,0,0,0,0,0,0,0,0,0,0,0,0,0,0,0,0,0,0,0,0,0,0,0,0,0,0,0,0,0,0,0,0,0,0,0,0,0,0,0,0,0,0,0,0,0,0,0,0,0,0,0,0,0,0,0,0,0,0,0,0,0,0,0,0,0,0,0,0,0],"id":16,"left_children":[1,3,5,7,9,11,13,15,-1,17,19,21,23,25,27,29,31,33,35,-1,37,-1,-1,-1,-1,39,41,43,45,-1,-1,-1,47,49,51,53,55,57,59,61,-1,63,65,67,69,71,-1,-1,-1,-1,-1,-1,-1,-1,-1,-1,-1,-1,-1,-1,-1,-1,-1,-1,-1,-1,-1,-1,-1,-1,-1,-1,-1],"loss_changes":[6.0545338E1,2.720184E1,4.0487034E1,1.0731531E1,2.3194805E1,5.8714523E0,5.5382786E0,3.6327667E0,0E0,2.6844378E1,2.680605E0,3.2124748E0,1.5960178E0,3.4854686E0,8.412159E0,6.357896E-2,2.6505585E0,1.4663349E1,1.3775894E1,0E0,1.3275166E0,0E0,0E0,0E0,0E0,1.0024167E0,2.3918972E0,1.8638397E1,8.129919E0,0E0,0E0,0E0,1.014328E-2,5.2706127E0,7.807946E0,1.2738342E1,1.7455761E1,2.0783234E-1,5.103507E-1,5.989164E-2,0E0,4.0889382E-1,2.4753976E0,7.232666E-1,6.8976574E0,1.819721E0,0E0,0E0,0E0,0E0,0E0,0E0,0E0,0E0,0E0,0E0,0E0,0E0,0E0,0E0,0E0,0E0,0E0,0E0,0E0,0E0,0E0,0E0,0E0,0E0,0E0,0E0,0E0],"parents":[2147483647,0,0,1,1,2,2,3,3,4,4,5,5,6,6,7,7,9,9,10,10,11,11,12,12,13,13,14,14,15,15,16,16,17,17,18,18,20,20,25,25,26,26,27,27,28,28,32,32,33,33,34,34,35,35,36,36,37,37,38,38,39,39,41,41,42,42,43,43,44,44,45,45],"right_children":[2,4,6,8,10,12,14,16,-1,18,20,22,24,26,28,30,32,34,36,-1,38,-1,-1,-1,-1,40,42,44,46,-1,-1,-1,48,50,52,54,56,58,60,62,-1,64,66,68,70,72,-1,-1,-1,-1,-1,-1,-1,-1,-1,-1,-1,-1,-1,-1,-1,-1,-1,-1,-1,-1,-1,-1,-1,-1,-1,-1,-1],"split_conditions":[4E0,5E-2,3.7E0,1.2999E4,2.6802433E0,7.21E2,2.05E2,5.35E2,-2.4101421E-2,1.295E3,1.545E3,3.5E0,3.7504598E-1,2.064223E-1,3.08E3,4.481833E-1,-2.6262626E-2,4.99E2,2.28E3,-7.2685117E-3,8.51E2,-1.1814653E-1,-6.447304E-2,-4.0752273E-2,-6.447304E-2,3.15E2,5.04E2,3.9E0,2.9858623E0,-2.4101421E-2,-4.3334544E-2,-1.362695E-1,3.14E2,4.5E2,4.2E0,4.295E3,4.1E0,4E3,3.4E0,1.375E-1,7.842133E-3,4.4E0,4.99E2,6.5E2,2.4E3,2.4999E4,-4.0752273E-2,-2.4101421E-2,-6.541652E-2,1.6034862E-2,7.02609E-2,-7.2685117E-3,5.097283E-3,2.0371923E-2,5.0723325E-2,-7.2685117E-3,1.654741E-2,-2.4101421E-2,-1.5684968E-2,-1.5684968E-2,-7.2685117E-3,-3.8601232E-3,2.555287E-3,7.842133E-3,1.8445073E-2,7.58004E-2,2.8118132E-2,-2.7370272E-2,-4.0752273E-2,-9.570027E-3,-2.7370272E-2,-3.8601232E-3,-2.2306198E-2],"split_indices":[7,6,3,1,5,4,0,1,0,1,1,3,5,6,1,5,6,1,0,0,4,0,0,0,0,1,4,3,5,0,0,0,0,1,3,1,3,1,3,6,0,3,1,1,1,1,0,0,0,0,0,0,0,0,0,0,0,0,0,0,0,0,0,0,0,0,0,0,0,0,0,0,0],"split_type":[0,0,0,0,0,0,0,0,0,0,0,0,0,0,0,0,0,0,0,0,0,0,0,0,0,0,0,0,0,0,0,0,0,0,0,0,0,0,0,0,0,0,0,0,0,0,0,0,0,0,0,0,0,0,0,0,0,0,0,0,0,0,0,0,0,0,0,0,0,0,0,0,0],"sum_hessian":[1.169E3,7.81E2,3.88E2,1.6E1,7.65E2,3.4E1,3.54E2,1.3E1,3E0,7.42E2,2.3E1,1.9E1,1.5E1,3.3E1,3.21E2,3E0,1E1,3.36E2,4.06E2,2E0,2.1E1,7E0,1.2E1,9E0,6E0,1.1E1,2.2E1,1.93E2,1.28E2,2E0,1E0,3E0,7E0,6.4E1,2.72E2,2.38E2,1.68E2,1.4E1,7E0,7E0,4E0,1.7E1,5E0,2.2E1,1.71E2,1.25E2,3E0,1E0,6E0,6E1,4E0,1.42E2,1.3E2,1.96E2,4.2E1,3.7E1,1.31E2,1.2E1,2E0,1E0,6E0,4E0,3E0,8E0,9E0,3E0,2E0,2E0,2E1,1.53E2,1.8E1,1.19E2,6E0],"tree_param":{"num_deleted":"0","num_feature":"8","num_nodes":"73","size_leaf_vector":"1"}},{"base_weights":[-3.222267E-2,-5.459035E-1,6.1112113E-2,-1.9791311E0,-4.6773514E-1,1.8359868E-1,-2.0110951E-1,-1.2655541E-1,-6.406457E-2,-2.4692445E-1,-7.937725E-1,5.95343E-2,3.8311726E-1,-2.3318672E-1,1.24385245E-1,-2.423957E-1,-1.2234331E0,-1.2213862E0,-2.423957E-1,-2.423957E-1,1.5564424E-1,4.3968204E-1,-2.423957E-1,-2.423957E-1,-5.440074E-2,-5.440074E-2,1.0648319E0,-2.423957E-1,-3.664572E-2,-3.664572E-2,-6.117166E-2,-3.8805544E-1,-1.2234331E0,-5.2185446E-2,-2.423957E-1,-2.423957E-1,-4.337573E-2,2.2541918E-1,-2.1687865E-3,-1.2119785E-2,4.6851495E-1,-1.2119785E-2,3.6061636E-1,-5.440074E-2,-2.423957E-1,-1.2119785E-2,-5.440074E-2,3.723596E-1,-5.440074E-2,7.45998E-2,3.5907287E-2,-2.4382753E-2,-1.2119785E-2,-4.1299287E-2,-1.2119785E-2,-6.117166E-2,-1.2119785E-2,-1.2119785E-2,-3.215262E-2,-7.144286E-3,-1.2119785E-2,-7.144286E-3,-2.1687865E-3,-2.1687865E-3,1.7820714E-2,3.104092E-2,1.5485736E-2,-1.2119785E-2,3.9291363E-2,-7.419911E-3,-2.720037E-3,-1.2119785E-2,-7.419911E-3,-1.2119785E-2,-2.720037E-3,2.7489343E-3,2.526078E-2,-2.720037E-3,2.526078E-2],"categories":[],"categories_nodes":[],"categories_segments":[],"categories_sizes":[],"default_left":[0,0,0,0,0,0,0,0,0,0,0,0,0,0,0,0,0,0,0,0,0,0,0,0,0,0,0,0,0,0,0,0,0,0,0,0,0,0,0,0,0,0,0,0,0,0,0,0,0,0,0,0,0,0,0,0,0,0,0,0,0,0,0,0,0,0,0,0,0,0,0,0,0,0,0,0,0,0,0],"id":17,"left_children":[1,3,5,7,9,11,13,-1,-1,15,17,19,21,23,25,27,29,31,33,35,37,39,41,43,45,47,49,51,-1,-1,-1,53,55,-1,57,59,61,63,-1,-1,65,-1,67,69,71,-1,73,75,77,-1,-1,-1,-1,-1,-1,-1,-1,-1,-1,-1,-1,-1,-1,-1,-1,-1,-1,-1,-1,-1,-1,-1,-1,-1,-1,-1,-1,-1,-1],"loss_changes":[5.6128166E1,1.9240238E1,3.186648E1,2.2364044E-1,1.2186707E1,1.6710316E1,3.32835E0,0E0,0E0,1.3133845E1,2.4968395E1,1.3485712E1,1.1188908E1,2.6319904E0,1.2849568E1,4.098688E0,5.5934525E-1,5.4815674E0,3.1517591E0,3.309916E0,8.760815E0,8.14473E0,2.4866085E0,1.591629E0,2.5542295E-1,1.0897869E0,5.575409E-1,1.7587383E0,0E0,0E0,0E0,2.1131186E0,3.6337204E0,0E0,8.486891E-1,2.948618E-1,1.8817077E0,1.1567967E1,0E0,0E0,5.588135E0,0E0,2.6820915E0,8.5381293E-1,1.1289654E0,0E0,1.9610965E-1,2.4699283E-1,7.01563E-1,0E0,0E0,0E0,0E0,0E0,0E0,0E0,0E0,0E0,0E0,0E0,0E0,0E0,0E0,0E0,0E0,0E0,0E0,0E0,0E0,0E0,0E0,0E0,0E0,0E0,0E0,0E0,0E0,0E0,0E0],"parents":[2147483647,0,0,1,1,2,2,3,3,4,4,5,5,6,6,9,9,10,10,11,11,12,12,13,13,14,14,15,15,16,16,17,17,18,18,19,19,20,20,21,21,22,22,23,23,24,24,25,25,26,26,27,27,31,31,32,32,34,34,35,35,36,36,37,37,40,40,42,42,43,43,44,44,46,46,47,47,48,48],"right_children":[2,4,6,8,10,12,14,-1,-1,16,18,20,22,24,26,28,30,32,34,36,38,40,42,44,46,48,50,52,-1,-1,-1,54,56,-1,58,60,62,64,-1,-1,66,-1,68,70,72,-1,74,76,78,-1,-1,-1,-1,-1,-1,-1,-1,-1,-1,-1,-1,-1,-1,-1,-1,-1,-1,-1,-1,-1,-1,-1,-1,-1,-1,-1,-1,-1,-1],"split_conditions":[3.9E0,3.1E0,3E0,5.6E1,3E0,2E3,4.8666668E-1,-1.2655541E-1,-6.406457E-2,4.28E3,3.08E3,1.8786061E-1,4.999E4,5E0,5.09E2,2.9858623E0,2E0,6.5E2,3.7E0,4.3E0,1.92E3,1.09E2,6.9999E4,2.05E2,9.9E1,3.15E2,6.8047756E-1,2.61E2,-3.664572E-2,-3.664572E-2,-6.117166E-2,3.7E0,5E0,-5.2185446E-2,1.2562578E0,2.99E2,1.111E3,6.4E2,-2.1687865E-3,-1.2119785E-2,8.5E3,-1.2119785E-2,1.6854167E-1,1.375E-1,4.999E3,-1.2119785E-2,1.1812169E-1,1.6E2,3.08E3,7.45998E-2,3.5907287E-2,-2.4382753E-2,-1.2119785E-2,-4.1299287E-2,-1.2119785E-2,-6.117166E-2,-1.2119785E-2,-1.2119785E-2,-3.215262E-2,-7.144286E-3,-1.2119785E-2,-7.144286E-3,-2.1687865E-3,-2.1687865E-3,1.7820714E-2,3.104092E-2,1.5485736E-2,-1.2119785E-2,3.9291363E-2,-7.419911E-3,-2.720037E-3,-1.2119785E-2,-7.419911E-3,-1.2119785E-2,-2.720037E-3,2.7489343E-3,2.526078E-2,-2.720037E-3,2.526078E-2],"split_indices":[3,3,7,2,7,1,6,0,0,0,1,6,1,7,4,5,7,1,3,3,1,4,1,0,1,1,5,4,0,0,0,3,7,0,5,1,1,1,0,0,1,0,6,6,1,0,6,1,1,0,0,0,0,0,0,0,0,0,0,0,0,0,0,0,0,0,0,0,0,0,0,0,0,0,0,0,0,0,0],"split_type":[0,0,0,0,0,0,0,0,0,0,0,0,0,0,0,0,0,0,0,0,0,0,0,0,0,0,0,0,0,0,0,0,0,0,0,0,0,0,0,0,0,0,0,0,0,0,0,0,0,0,0,0,0,0,0,0,0,0,0,0,0,0,0,0,0,0,0,0,0,0,0,0,0,0,0,0,0,0,0],"sum_hessian":[1.169E3,1.79E2,9.9E2,8E0,1.71E2,6.75E2,3.15E2,3E0,5E0,1.03E2,6.8E1,4.17E2,2.58E2,2.87E2,2.8E1,9.4E1,9E0,4.7E1,2.1E1,9.2E1,3.25E2,2.41E2,1.7E1,2.64E2,2.3E1,1.8E1,1E1,9.2E1,2E0,1E0,8E0,9E0,3.8E1,4E0,1.7E1,6.2E1,3E1,2.99E2,2.6E1,3E0,2.38E2,1.1E1,6E0,1.5E1,2.49E2,1E0,2.2E1,5E0,1.3E1,3E0,7E0,1.6E1,7.6E1,6E0,3E0,3.7E1,1E0,1.5E1,2E0,1E0,6.1E1,1.9E1,1.1E1,9.2E1,2.07E2,1.2E2,1.18E2,2E0,4E0,3E0,1.2E1,1.79E2,7E1,1E0,2.1E1,2E0,3E0,1.2E1,1E0],"tree_param":{"num_deleted":"0","num_feature":"8","num_nodes":"79","size_leaf_vector":"1"}},{"base_weights":[-3.234343E-2,-6.6587E-1,3.4688976E-2,-1.5779527E-2,-9.809948E-1,1.570709E-1,-2.1795665E-1,-1.1278131E0,-3.1559053E-1,-3.1559053E-1,2.0064543E-1,-2.5243202E-1,1.6759951E-1,-1.2180958E-1,-1.0451984E0,-1.5779527E-2,-3.608509E-2,-3.1559053E-1,-5.747255E-2,4.6671327E-2,3.3200988E-1,-3.1559053E-1,-3.723879E-2,-3.0018305E-2,4.9370307E-1,-1.2571712E0,-8.064257E-1,-9.326577E-3,-3.1559053E-1,-9.326577E-3,-5.747255E-2,-5.747255E-2,3.4357724E-1,-5.747255E-2,4.275754E-1,-1.2601335E-1,-3.1559053E-1,9.8325557E-1,-1.6607274E-1,-1.5779527E-2,4.3009646E-2,3.2406253E-1,5.4752707E-2,-4.4991024E-2,-8.7034754E-2,-3.608509E-2,-7.890659E-2,-1.2553051E-2,-1.5779527E-2,-2.8736275E-3,-6.100103E-3,-2.8736275E-3,7.152617E-3,5.5649906E-2,7.152617E-3,-2.8736275E-3,6.735827E-2,3.2002646E-2,1.0754038E-2,-1.5779527E-2,1.8184178E-2,-1.5779527E-2,5.3637482E-2,-1.4422405E-2,5.8913726E-2,-1.5529883E-2,7.4524353E-3,1.1592119E-2,-8.063576E-3,2.0621026E-2,1.1592119E-2],"categories":[],"categories_nodes":[],"categories_segments":[],"categories_sizes":[],"default_left":[0,0,0,0,0,0,0,0,0,0,0,0,0,0,0,0,0,0,0,0,0,0,0,0,0,0,0,0,0,0,0,0,0,0,0,0,0,0,0,0,0,0,0,0,0,0,0,0,0,0,0,0,0,0,0,0,0,0,0,0,0,0,0,0,0,0,0,0,0,0,0],"id":18,"left_children":[1,3,5,-1,7,9,11,13,15,17,19,21,23,-1,25,-1,-1,27,29,31,33,35,37,39,41,43,45,-1,47,-1,49,51,53,55,57,59,61,63,65,-1,67,69,-1,-1,-1,-1,-1,-1,-1,-1,-1,-1,-1,-1,-1,-1,-1,-1,-1,-1,-1,-1,-1,-1,-1,-1,-1,-1,-1,-1,-1],"loss_changes":[4.9709263E1,2.512162E1,3.2777733E1,0E0,1.3713707E1,1.974071E1,4.641403E0,6.1009903E0,4.9318242E-1,1.7535257E0,1.359709E1,4.7528E0,1.8836925E0,0E0,2.8834076E0,0E0,0E0,4.818697E-1,2.4207993E0,2.5896656E1,1.621811E1,3.8537464E0,1.0549765E1,5.3702366E-1,7.672827E-1,7.6499214E0,5.0669765E0,0E0,5.308056E-2,0E0,1.811006E-1,5.7394967E0,3.8760216E1,1.7753765E1,1.35429E1,1.2557936E1,3.7553806E0,2.571926E0,3.2798395E0,0E0,7.309133E-1,1.2207103E-1,0E0,0E0,0E0,0E0,0E0,0E0,0E0,0E0,0E0,0E0,0E0,0E0,0E0,0E0,0E0,0E0,0E0,0E0,0E0,0E0,0E0,0E0,0E0,0E0,0E0,0E0,0E0,0E0,0E0],"parents":[2147483647,0,0,1,1,2,2,4,4,5,5,6,6,7,7,8,8,9,9,10,10,11,11,12,12,14,14,17,17,18,18,19,19,20,20,21,21,22,22,23,23,24,24,25,25,26,26,28,28,30,30,31,31,32,32,33,33,34,34,35,35,36,36,37,37,38,38,40,40,41,41],"right_children":[2,4,6,-1,8,10,12,14,16,18,20,22,24,-1,26,-1,-1,28,30,32,34,36,38,40,42,44,46,-1,48,-1,50,52,54,56,58,60,62,64,66,-1,68,70,-1,-1,-1,-1,-1,-1,-1,-1,-1,-1,-1,-1,-1,-1,-1,-1,-1,-1,-1,-1,-1,-1,-1,-1,-1,-1,-1,-1,-1],"split_conditions":[3.8E0,2E0,3E0,-1.5779527E-2,7.8E1,1.97E2,5E0,2.8E0,3E0,4.3E0,2E0,4.999E3,4.62E2,-1.2180958E-1,1.6E3,-1.5779527E-2,-3.608509E-2,3.840761E-1,1.3E1,4.2E0,9.31E2,1.499E3,5.5E3,1.2E2,1.299E3,4.49E2,1.6408839E0,-9.326577E-3,6.7E1,-9.326577E-3,4.799E3,4.4333333E-1,8.25E2,3.703463E-1,9.5451444E-1,1E3,4.8E0,3.9E0,3.0985507E-1,-1.5779527E-2,1.59E2,8.25E2,5.4752707E-2,-4.4991024E-2,-8.7034754E-2,-3.608509E-2,-7.890659E-2,-1.2553051E-2,-1.5779527E-2,-2.8736275E-3,-6.100103E-3,-2.8736275E-3,7.152617E-3,5.5649906E-2,7.152617E-3,-2.8736275E-3,6.735827E-2,3.2002646E-2,1.0754038E-2,-1.5779527E-2,1.8184178E-2,-1.5779527E-2,5.3637482E-2,-1.4422405E-2,5.8913726E-2,-1.5529883E-2,7.4524353E-3,1.1592119E-2,-8.063576E-3,2.0621026E-2,1.1592119E-2],"split_indices":[3,7,7,0,2,4,7,3,7,3,7,1,4,0,1,0,0,5,2,3,1,1,1,1,1,0,5,0,0,0,0,6,1,6,5,1,3,3,6,0,0,1,0,0,0,0,0,0,0,0,0,0,0,0,0,0,0,0,0,0,0,0,0,0,0,0,0,0,0,0,0],"split_type":[0,0,0,0,0,0,0,0,0,0,0,0,0,0,0,0,0,0,0,0,0,0,0,0,0,0,0,0,0,0,0,0,0,0,0,0,0,0,0,0,0,0,0,0,0,0,0,0,0,0,0,0,0,0,0,0,0,0,0,0,0,0,0,0,0,0,0,0,0,0,0],"sum_hessian":[1.169E3,1.11E2,1.058E3,2.4E1,8.7E1,7.13E2,3.45E2,7.9E1,8E0,4.1E1,6.72E2,3.17E2,2.8E1,3E0,7.6E1,7E0,1E0,2E1,2.1E1,3.1E2,3.62E2,2.39E2,7.8E1,1.8E1,1E1,3.8E1,3.8E1,1E0,1.9E1,4E0,1.7E1,1.29E2,1.81E2,6E1,3.02E2,1.09E2,1.3E2,8E0,7E1,2E0,1.6E1,9E0,1E0,2.7E1,1.1E1,3.1E1,7E0,1E0,1.8E1,1.6E1,1E0,1.07E2,2.2E1,4.8E1,1.33E2,5.2E1,8E0,1.5E2,1.52E2,7.4E1,3.5E1,1.29E2,1E0,1E0,7E0,4.8E1,2.2E1,8E0,8E0,7E0,2E0],"tree_param":{"num_deleted":"0","num_feature":"8","num_nodes":"71","size_leaf_vector":"1"}},{"base_weights":[-3.4642514E-2,1.0309022E-1,-3.114352E-1,1.3461708E-1,-8.5692793E-1,-1.1965716E0,-2.2329095E-1,-7.148583E-2,3.0604434E-1,-1.8775239E0,-3.6115542E-1,-1.5637987E0,-7.0993125E-1,-3.0994913E-1,-6.906849E-2,-3.6115542E-1,8.6557925E-2,4.4257364E-1,1.1329211E-1,-2.1481678E0,-5.5966984E-2,-1.1193397E0,-1.8057771E-2,-1.0626026E-1,-5.6843247E-2,-3.5496563E-2,-5.6843247E-2,-8.842608E-2,-6.524407E-1,7.836398E-2,-1.0717853E-1,-1.3729875E-1,-1.8057771E-2,8.784759E-1,1.7610414E-2,3.516764E-1,8.436186E-1,-3.6115542E-1,2.7793288E-1,-6.593086E-2,-1.4073482E-1,-5.5966984E-2,-3.701238E-2,-2.4278215E-1,3.4365773E-1,-6.8412024E-1,5.3383898E-2,-5.2369427E-2,-3.5496563E-2,-1.8057771E-2,-6.8649375E-3,4.9357098E-2,1.2567962E-2,-6.8649375E-3,9.055258E-3,4.0426176E-2,1.3896644E-2,1.3896644E-2,4.836275E-2,-2.0805635E-3,-1.8057771E-2,1.3896644E-2,-2.0805635E-3,-2.3398425E-3,-3.5496563E-2,3.6839243E-2,4.523686E-4,-3.5496563E-2,5.2296545E-2,-7.7867033E-3,9.744308E-3],"categories":[],"categories_nodes":[],"categories_segments":[],"categories_sizes":[],"default_left":[0,0,0,0,0,0,0,0,0,0,0,0,0,0,0,0,0,0,0,0,0,0,0,0,0,0,0,0,0,0,0,0,0,0,0,0,0,0,0,0,0,0,0,0,0,0,0,0,0,0,0,0,0,0,0,0,0,0,0,0,0,0,0,0,0,0,0,0,0,0,0],"id":19,"left_children":[1,3,5,7,9,11,13,15,17,19,21,23,25,27,29,31,33,35,37,39,-1,41,-1,-1,-1,-1,-1,43,45,-1,47,49,-1,51,53,55,57,59,61,-1,-1,-1,-1,63,65,67,-1,69,-1,-1,-1,-1,-1,-1,-1,-1,-1,-1,-1,-1,-1,-1,-1,-1,-1,-1,-1,-1,-1,-1,-1],"loss_changes":[4.4636497E1,2.3783651E1,3.0082474E1,2.680328E1,1.2119793E1,5.789131E0,4.7230377E0,1.6021774E1,1.0844814E1,1.5577469E0,7.3692894E0,2.876625E0,1.2977753E0,1.7164745E1,8.212585E0,5.5840282E0,1.2269704E1,8.525154E0,2.204352E1,1.589241E-1,0E0,2.7320004E-1,0E0,0E0,0E0,0E0,0E0,9.354006E0,5.580261E0,0E0,6.971579E0,3.2034512E0,0E0,9.785061E-1,8.879007E0,6.7233124E0,5.324505E0,1.4915972E0,4.0795307E0,0E0,0E0,0E0,0E0,1.6155989E1,4.8604765E0,5.60347E0,0E0,3.1994786E0,0E0,0E0,0E0,0E0,0E0,0E0,0E0,0E0,0E0,0E0,0E0,0E0,0E0,0E0,0E0,0E0,0E0,0E0,0E0,0E0,0E0,0E0,0E0],"parents":[2147483647,0,0,1,1,2,2,3,3,4,4,5,5,6,6,7,7,8,8,9,9,10,10,11,11,12,12,13,13,14,14,15,15,16,16,17,17,18,18,19,19,21,21,27,27,28,28,30,30,31,31,33,33,34,34,35,35,36,36,37,37,38,38,43,43,44,44,45,45,47,47],"right_children":[2,4,6,8,10,12,14,16,18,20,22,24,26,28,30,32,34,36,38,40,-1,42,-1,-1,-1,-1,-1,44,46,-1,48,50,-1,52,54,56,58,60,62,-1,-1,-1,-1,64,66,68,-1,70,-1,-1,-1,-1,-1,-1,-1,-1,-1,-1,-1,-1,-1,-1,-1,-1,-1,-1,-1,-1,-1,-1,-1],"split_conditions":[4E0,2.6802433E0,3.7E0,1.295E3,4.3E0,7.21E2,3.08E3,4.86E2,2.28E3,4E3,3.7E2,3.5E0,3.7504598E-1,1.499E3,5.2497226E-1,2E0,3.5E2,4.295E3,4.1E0,1.399E3,-5.5966984E-2,2E3,-1.8057771E-2,-1.0626026E-1,-5.6843247E-2,-3.5496563E-2,-5.6843247E-2,1E3,5E0,7.836398E-2,2.9858623E0,4.3E0,-1.8057771E-2,8.2510066E-1,4.1E0,1.499E3,1.3492064E-1,2E0,4.999E4,-6.593086E-2,-1.4073482E-1,-5.5966984E-2,-3.701238E-2,9.99E2,1.295E3,4.7E0,5.3383898E-2,9.77E2,-3.5496563E-2,-1.8057771E-2,-6.8649375E-3,4.9357098E-2,1.2567962E-2,-6.8649375E-3,9.055258E-3,4.0426176E-2,1.3896644E-2,1.3896644E-2,4.836275E-2,-2.0805635E-3,-1.8057771E-2,1.3896644E-2,-2.0805635E-3,-2.3398425E-3,-3.5496563E-2,3.6839243E-2,4.523686E-4,-3.5496563E-2,5.2296545E-2,-7.7867033E-3,9.744308E-3],"split_indices":[7,5,3,1,3,4,1,4,0,1,4,3,5,1,5,7,1,1,3,0,0,1,0,0,0,0,0,1,7,0,5,3,0,5,3,1,6,7,1,0,0,0,0,1,1,3,0,4,0,0,0,0,0,0,0,0,0,0,0,0,0,0,0,0,0,0,0,0,0,0,0],"split_type":[0,0,0,0,0,0,0,0,0,0,0,0,0,0,0,0,0,0,0,0,0,0,0,0,0,0,0,0,0,0,0,0,0,0,0,0,0,0,0,0,0,0,0,0,0,0,0,0,0,0,0,0,0,0,0,0,0,0,0,0,0,0,0,0,0,0,0,0,0,0,0],"sum_hessian":[1.169E3,7.81E2,3.88E2,7.57E2,2.4E1,3.4E1,3.54E2,3.44E2,4.13E2,7E0,1.7E1,1.9E1,1.5E1,2.26E2,1.28E2,1.2E2,2.24E2,2.41E2,1.72E2,6E0,1E0,8E0,9E0,7E0,1.2E1,9E0,6E0,1.38E2,8.8E1,2E0,1.26E2,7.1E1,4.9E1,1.7E1,2.07E2,1.98E2,4.3E1,3.8E1,1.34E2,4E0,2E0,7E0,1E0,1.02E2,3.6E1,8.7E1,1E0,1.23E2,3E0,5E1,2.1E1,1.4E1,3E0,7.1E1,1.36E2,2.7E1,1.71E2,3E0,4E1,7E0,3.1E1,1.2E2,1.4E1,8.8E1,1.4E1,1.6E1,2E1,8.6E1,1E0,8.7E1,3.6E1],"tree_param":{"num_deleted":"0","num_feature":"8","num_nodes":"71","size_leaf_vector":"1"}},{"base_weights":[-3.4165908E-2,-4.7142917E-1,4.5290753E-2,-1.7850592E0,-3.9995185E-1,1.4994028E-1,-1.7872308E-1,-5.462528E-2,-1.1064102E-1,-2.130692E-1,-5.538377E-1,-1.576476E-2,2.752284E-1,-2.0766519E-1,1.2638378E-1,-5.235408E-1,-2.130692E-1,-8.3720976E-1,-2.130692E-1,-2.130692E-1,1.5966405E-1,3.3550796E-1,-2.130692E-1,-2.130692E-1,1.3243786E-1,5.3954583E-2,5.2049305E-2,-1.841525E-2,-5.462528E-2,-1.841525E-2,-1.065346E-2,-1.0697639E0,-3.9936593E-1,-2.130692E-1,-5.462528E-2,-2.130692E-1,-2.6702575E-2,3.6087492E-1,-2.6702575E-2,3.9164254E-1,6.121938E-2,-2.130692E-1,6.121938E-2,-4.0315673E-2,-2.130692E-1,-4.0315673E-2,1.0172967E0,-8.8931456E-2,1.9298673E-1,-3.6728244E-2,-5.462528E-2,-3.6728244E-2,-1.065346E-2,-1.065346E-2,-3.263937E-2,-5.994295E-3,-1.065346E-2,-1.3351288E-3,-5.994295E-3,-1.3351288E-3,3.923836E-2,-1.3351288E-3,5.4373264E-2,3.060969E-3,2.2273911E-2,3.060969E-3,4.2911362E-2,-3.7962457E-3,-1.065346E-2,-3.7962457E-3,3.060969E-3,-6.3346224E-3,-2.0157837E-3,-1.065346E-2,-6.3346224E-3,2.4424525E-2,-2.0157837E-3,6.1576147E-2,2.5696022E-2,-9.132669E-3,2.6013819E-3,2.6013819E-3,1.5797658E-2],"categories":[],"categories_nodes":[],"categories_segments":[],"categories_sizes":[],"default_left":[0,0,0,0,0,0,0,0,0,0,0,0,0,0,0,0,0,0,0,0,0,0,0,0,0,0,0,0,0,0,0,0,0,0,0,0,0,0,0,0,0,0,0,0,0,0,0,0,0,0,0,0,0,0,0,0,0,0,0,0,0,0,0,0,0,0,0,0,0,0,0,0,0,0,0,0,0,0,0,0,0,0,0],"id":20,"left_children":[1,3,5,7,9,11,13,-1,-1,15,17,19,21,23,25,27,29,31,33,35,37,39,41,43,45,47,-1,-1,-1,-1,-1,49,51,53,-1,55,57,59,61,63,65,67,69,71,73,75,77,79,81,-1,-1,-1,-1,-1,-1,-1,-1,-1,-1,-1,-1,-1,-1,-1,-1,-1,-1,-1,-1,-1,-1,-1,-1,-1,-1,-1,-1,-1,-1,-1,-1,-1,-1],"loss_changes":[4.067122E1,1.6187119E1,2.3258755E1,7.652836E-1,1.0204727E1,1.4038692E1,2.8166637E0,0E0,0E0,2.4377966E-1,1.4471924E1,1.5817615E1,1.7999262E1,2.9305391E0,1.7986636E0,1.6033044E0,1.3224983E-1,7.6167336E0,1.2907866E1,1.4314928E0,9.56529E0,7.0364723E0,1.2747493E0,1.4640646E0,1.1556261E1,5.535379E-1,0E0,0E0,0E0,0E0,0E0,3.1310692E0,8.357612E0,3.440874E0,0E0,6.527033E-1,1.4602046E0,1.91838E1,2.6068056E1,8.758411E0,2.5371385E0,4.7748232E-1,7.228443E-2,7.848155E-1,8.9206505E-1,1.1276536E0,5.532961E-1,2.698724E-1,3.460307E-1,0E0,0E0,0E0,0E0,0E0,0E0,0E0,0E0,0E0,0E0,0E0,0E0,0E0,0E0,0E0,0E0,0E0,0E0,0E0,0E0,0E0,0E0,0E0,0E0,0E0,0E0,0E0,0E0,0E0,0E0,0E0,0E0,0E0,0E0],"parents":[2147483647,0,0,1,1,2,2,3,3,4,4,5,5,6,6,9,9,10,10,11,11,12,12,13,13,14,14,15,15,16,16,17,17,18,18,19,19,20,20,21,21,22,22,23,23,24,24,25,25,31,31,32,32,33,33,35,35,36,36,37,37,38,38,39,39,40,40,41,41,42,42,43,43,44,44,45,45,46,46,47,47,48,48],"right_children":[2,4,6,8,10,12,14,-1,-1,16,18,20,22,24,26,28,30,32,34,36,38,40,42,44,46,48,-1,-1,-1,-1,-1,50,52,54,-1,56,58,60,62,64,66,68,70,72,74,76,78,80,82,-1,-1,-1,-1,-1,-1,-1,-1,-1,-1,-1,-1,-1,-1,-1,-1,-1,-1,-1,-1,-1,-1,-1,-1,-1,-1,-1,-1,-1,-1,-1,-1,-1,-1],"split_conditions":[3.9E0,3.1E0,3E0,5.22E2,2E0,1.295E3,5E0,-5.462528E-2,-1.1064102E-1,6.7E1,2.55E3,5.19E2,2.6802433E0,4.8666668E-1,1.299E3,1.15E2,1E0,7.61E2,3.999E3,4.4E0,8.99E2,2.799E4,8.51E2,2.05E2,5.09E2,4.4E0,5.2049305E-2,-1.841525E-2,-5.462528E-2,-1.841525E-2,-1.065346E-2,3.1496063E-1,3.8E0,2.2077467E0,-5.462528E-2,4.99E2,2E0,4.2E0,2E0,1.3073319E-1,3.8348484E-1,1.545E3,1.1E1,1.375E-1,4.999E3,3.15E2,1.699E3,4.62E2,1.75E2,-3.6728244E-2,-5.462528E-2,-3.6728244E-2,-1.065346E-2,-1.065346E-2,-3.263937E-2,-5.994295E-3,-1.065346E-2,-1.3351288E-3,-5.994295E-3,-1.3351288E-3,3.923836E-2,-1.3351288E-3,5.4373264E-2,3.060969E-3,2.2273911E-2,3.060969E-3,4.2911362E-2,-3.7962457E-3,-1.065346E-2,-3.7962457E-3,3.060969E-3,-6.3346224E-3,-2.0157837E-3,-1.065346E-2,-6.3346224E-3,2.4424525E-2,-2.0157837E-3,6.1576147E-2,2.5696022E-2,-9.132669E-3,2.6013819E-3,2.6013819E-3,1.5797658E-2],"split_indices":[3,3,7,0,7,1,7,0,0,4,1,4,5,6,1,0,7,4,0,3,1,1,4,0,4,3,0,0,0,0,0,5,3,5,0,1,7,3,7,6,6,1,2,6,1,1,0,4,1,0,0,0,0,0,0,0,0,0,0,0,0,0,0,0,0,0,0,0,0,0,0,0,0,0,0,0,0,0,0,0,0,0,0],"split_type":[0,0,0,0,0,0,0,0,0,0,0,0,0,0,0,0,0,0,0,0,0,0,0,0,0,0,0,0,0,0,0,0,0,0,0,0,0,0,0,0,0,0,0,0,0,0,0,0,0,0,0,0,0,0,0,0,0,0,0,0,0,0,0,0,0,0,0,0,0,0,0,0,0,0,0,0,0,0,0,0,0,0,0],"sum_hessian":[1.169E3,1.79E2,9.9E2,8E0,1.71E2,6.75E2,3.15E2,4E0,4E0,3.2E1,1.39E2,2.91E2,3.84E2,2.88E2,2.7E1,2E0,3E1,7.8E1,6.1E1,9.6E1,1.95E2,3.64E2,2E1,2.64E2,2.4E1,2.6E1,1E0,1E0,1E0,1E0,2.9E1,5E1,2.8E1,5.2E1,9E0,7.1E1,2.5E1,1.08E2,8.7E1,3.15E2,4.9E1,1.4E1,6E0,1.5E1,2.49E2,1.4E1,1E1,1.3E1,1.3E1,3E0,4.7E1,1.9E1,9E0,5E1,2E0,1.4E1,5.7E1,1.1E1,1.4E1,5.5E1,5.3E1,6.7E1,2E1,2.3E1,2.92E2,4.6E1,3E0,1E0,1.3E1,1E0,5E0,3E0,1.2E1,1.79E2,7E1,3E0,1.1E1,6E0,4E0,9E0,4E0,5E0,8E0],"tree_param":{"num_deleted":"0","num_feature":"8","num_nodes":"83","size_leaf_vector":"1"}},{"base_weights":[-3.5494678E-2,